<?xml version="1.0"?>
<opencv_storage>
<cascade>
  <stageType>BOOST</stageType>
  <featureType>LBP</featureType>
  <height>80</height>
  <width>120</width>
  <stageParams>
    <boostType>GAB</boostType>
    <minHitRate>9.9900001287460327e-01</minHitRate>
    <maxFalseAlarm>5.0000000000000000e-01</maxFalseAlarm>
    <weightTrimRate>9.4999999999999996e-01</weightTrimRate>
    <maxDepth>1</maxDepth>
    <maxWeakCount>100</maxWeakCount></stageParams>
  <featureParams>
    <maxCatCount>256</maxCatCount>
    <featSize>1</featSize></featureParams>
  <stageNum>20</stageNum>
  <stages>
    <!-- stage 0 -->
    <_>
      <maxWeakCount>3</maxWeakCount>
      <stageThreshold>-9.6527189016342163e-01</stageThreshold>
      <weakClassifiers>
        <_>
          <internalNodes>
            0 -1 49 -12867398 -177089972 -1726971760 -8288256
            -1019305302 -82939485 -1459057686 -5669</internalNodes>
          <leafValues>
            -8.2974356412887573e-01 6.3022220134735107e-01</leafValues></_>
        <_>
          <internalNodes>
            0 -1 81 -68157505 -575762782 -1605711346 22741512 -897935185
            53120810 -798242642 -799286177</internalNodes>
          <leafValues>
            -6.2091356515884399e-01 6.4922893047332764e-01</leafValues></_>
        <_>
          <internalNodes>
            0 -1 76 -137630518 -587025058 285212800 -1794424060
            -2004037976 -74805091 16927131 -18092577</internalNodes>
          <leafValues>
            -7.8475719690322876e-01 5.1479756832122803e-01</leafValues></_></weakClassifiers></_>
    <!-- stage 1 -->
    <_>
      <maxWeakCount>5</maxWeakCount>
      <stageThreshold>-1.0552086830139160e+00</stageThreshold>
      <weakClassifiers>
        <_>
          <internalNodes>
            0 -1 100 2053044473 -145112383 1225267679 -581701291
            1342255248 1881210944 1917023195 2136435267</internalNodes>
          <leafValues>
            -7.6778244972229004e-01 5.5419582128524780e-01</leafValues></_>
        <_>
          <internalNodes>
            0 -1 9 -327120742 -552583166 134234329 -620625779
            -2003663702 -1145460488 -2013214502 -882311062</internalNodes>
          <leafValues>
            -6.9441336393356323e-01 5.7172340154647827e-01</leafValues></_>
        <_>
          <internalNodes>
            0 -1 72 -36182390 -170139553 -2130701304 -544497200
            -103628630 -651052053 524377598 -543173685</internalNodes>
          <leafValues>
            -7.8141742944717407e-01 4.9493566155433655e-01</leafValues></_>
        <_>
          <internalNodes>
            0 -1 98 -919865357 -1827573239 -2080308977 252044803
            1078904077 -1719468031 1179470346 1265621571</internalNodes>
          <leafValues>
            -6.5784507989883423e-01 5.7893693447113037e-01</leafValues></_>
        <_>
          <internalNodes>
            0 -1 24 261095673 -1659793392 318773369 487659857
            -1173836577 -91191134 679496367 -1707999231</internalNodes>
          <leafValues>
            -6.6688555479049683e-01 6.0042589902877808e-01</leafValues></_></weakClassifiers></_>
    <!-- stage 2 -->
    <_>
      <maxWeakCount>5</maxWeakCount>
      <stageThreshold>-1.0839823484420776e+00</stageThreshold>
      <weakClassifiers>
        <_>
          <internalNodes>
            0 -1 25 -765988649 284756188 -1719609571 289787983
            -612257857 688256 -87168837 9933487</internalNodes>
          <leafValues>
            -7.5729286670684814e-01 4.4167336821556091e-01</leafValues></_>
        <_>
          <internalNodes>
            0 -1 83 -703596897 -536116096 637714636 -968818142
            -930295569 -2013167576 1342914702 -747157121</internalNodes>
          <leafValues>
            -6.5962940454483032e-01 5.0432002544403076e-01</leafValues></_>
        <_>
          <internalNodes>
            0 -1 114 -42867783 -614619325 1393772633 2111144790 21045386
            1157767185 822216089 1472984027</internalNodes>
          <leafValues>
            -7.2586333751678467e-01 4.5951524376869202e-01</leafValues></_>
        <_>
          <internalNodes>
            0 -1 20 -1247799206 -1323761584 67113672 -1651830760
            -125248837 -1080485587 -1467307830 -1075060563</internalNodes>
          <leafValues>
            -7.3670721054077148e-01 5.0210410356521606e-01</leafValues></_>
        <_>
          <internalNodes>
            0 -1 57 -1685958439 -201896720 989257469 522667991 974059704
            -874595174 -366037013 -1616259834</internalNodes>
          <leafValues>
            -5.5381751060485840e-01 6.8968862295150757e-01</leafValues></_></weakClassifiers></_>
    <!-- stage 3 -->
    <_>
      <maxWeakCount>7</maxWeakCount>
      <stageThreshold>-1.0447599887847900e+00</stageThreshold>
      <weakClassifiers>
        <_>
          <internalNodes>
            0 -1 93 -341315909 -268196958 -1056863965 1325650466
            -938785713 -2011020629 1208828494 -882902677</internalNodes>
          <leafValues>
            -6.0267430543899536e-01 5.0427353382110596e-01</leafValues></_>
        <_>
          <internalNodes>
            0 -1 45 -44310529 1594888368 553656580 288391680 -250490425
            -1324309367 -110198517 -1083066741</internalNodes>
          <leafValues>
            -5.5467247962951660e-01 5.1477426290512085e-01</leafValues></_>
        <_>
          <internalNodes>
            0 -1 110 -1424867279 1436107412 357949375 355943893
            -1165997350 -74791477 -1467895081 966481659</internalNodes>
          <leafValues>
            -5.9753185510635376e-01 5.0676673650741577e-01</leafValues></_>
        <_>
          <internalNodes>
            0 -1 133 1400367274 2135114514 -1828716410 -687007289
            294247166 -1794801590 -8042358 -1022371089</internalNodes>
          <leafValues>
            -5.6343084573745728e-01 5.5702316761016846e-01</leafValues></_>
        <_>
          <internalNodes>
            0 -1 117 236259331 -1189613303 -800485185 -765886349
            1552634554 -1853347696 -878114781 -620954877</internalNodes>
          <leafValues>
            -6.2510335445404053e-01 5.0848770141601562e-01</leafValues></_>
        <_>
          <internalNodes>
            0 -1 111 -168300310 -322074405 -2007931632 1254998166
            -1023327520 1632381312 1663808973 2071983871</internalNodes>
          <leafValues>
            -6.7321437597274780e-01 4.8294109106063843e-01</leafValues></_>
        <_>
          <internalNodes>
            0 -1 3 -786514738 -651296640 286392661 134220165 -1968526626
            -553638870 472615657 998967497</internalNodes>
          <leafValues>
            -7.0882594585418701e-01 4.8106941580772400e-01</leafValues></_></weakClassifiers></_>
    <!-- stage 4 -->
    <_>
      <maxWeakCount>5</maxWeakCount>
      <stageThreshold>-8.7497198581695557e-01</stageThreshold>
      <weakClassifiers>
        <_>
          <internalNodes>
            0 -1 54 -684599078 -1617172093 -2113922864 -1246652168
            -1289371234 -1736245218 -1975997702 -610668485</internalNodes>
          <leafValues>
            -6.8421053886413574e-01 3.7341773509979248e-01</leafValues></_>
        <_>
          <internalNodes>
            0 -1 104 1180937079 2079832917 247373695 -1069188 1484197879
            1031798655 -273723799 -268447745</internalNodes>
          <leafValues>
            -4.7697111964225769e-01 5.7484281063079834e-01</leafValues></_>
        <_>
          <internalNodes>
            0 -1 11 -619130628 498700528 1501568063 388067585 -254533526
            -1457389439 -896761157 -616882158</internalNodes>
          <leafValues>
            -5.6365704536437988e-01 5.1389187574386597e-01</leafValues></_>
        <_>
          <internalNodes>
            0 -1 63 -10487230 340387080 -1325121216 -173318008
            -1742476550 -265863163 -27618610 -604519685</internalNodes>
          <leafValues>
            -6.7088741064071655e-01 4.4851282238960266e-01</leafValues></_>
        <_>
          <internalNodes>
            0 -1 107 -843324933 -384310141 -1061744367 537124866
            610386859 -1056960350 -936181239 253743626</internalNodes>
          <leafValues>
            -5.8868807554244995e-01 5.1134610176086426e-01</leafValues></_></weakClassifiers></_>
    <!-- stage 5 -->
    <_>
      <maxWeakCount>7</maxWeakCount>
      <stageThreshold>-1.0296796560287476e+00</stageThreshold>
      <weakClassifiers>
        <_>
          <internalNodes>
            0 -1 68 1002132731 -103068424 521920511 1543458001
            -1086595942 -85300227 1040891903 -551855619</internalNodes>
          <leafValues>
            -4.6729707717895508e-01 5.9326112270355225e-01</leafValues></_>
        <_>
          <internalNodes>
            0 -1 19 1949946009 -15138512 815108593 1403089233 1502136570
            -7533862 1344809098 413159505</internalNodes>
          <leafValues>
            -6.0333240032196045e-01 4.4700515270233154e-01</leafValues></_>
        <_>
          <internalNodes>
            0 -1 130 -1300044374 1342838292 344000708 1066510336
            1084924904 134283905 67578347 1408234443</internalNodes>
          <leafValues>
            -7.0453000068664551e-01 3.9698374271392822e-01</leafValues></_>
        <_>
          <internalNodes>
            0 -1 32 -949517078 -574144232 151045230 -788496320
            -754874198 -527327207 -1994814782 -41186142</internalNodes>
          <leafValues>
            -6.7602777481079102e-01 4.4315463304519653e-01</leafValues></_>
        <_>
          <internalNodes>
            0 -1 118 777061171 1066894103 -127675397 -1659768161
            2060087854 -1188757336 -57654852 -134488</internalNodes>
          <leafValues>
            -6.3151079416275024e-01 4.6552512049674988e-01</leafValues></_>
        <_>
          <internalNodes>
            0 -1 65 -81537857 -749670834 1124184144 2030813522
            -800850684 553811981 1292075561 1664346111</internalNodes>
          <leafValues>
            -5.9039527177810669e-01 4.9485120177268982e-01</leafValues></_>
        <_>
          <internalNodes>
            0 -1 67 1020721375 -1857564654 -1710206231 2081460404
            -1979154213 -489945013 -1127694113 -1691856684</internalNodes>
          <leafValues>
            -6.0547363758087158e-01 5.2412927150726318e-01</leafValues></_></weakClassifiers></_>
    <!-- stage 6 -->
    <_>
      <maxWeakCount>7</maxWeakCount>
      <stageThreshold>-1.0897212028503418e+00</stageThreshold>
      <weakClassifiers>
        <_>
          <internalNodes>
            0 -1 86 176308248 -170848047 -2100297249 -47099823
            -1163292422 -74723312 411675583 981998077</internalNodes>
          <leafValues>
            -7.3314994573593140e-01 3.1536781787872314e-01</leafValues></_>
        <_>
          <internalNodes>
            0 -1 131 -97791318 825098436 58720586 1003097256 1266780378
            224444429 547600523 1241772619</internalNodes>
          <leafValues>
            -6.7994290590286255e-01 3.4644138813018799e-01</leafValues></_>
        <_>
          <internalNodes>
            0 -1 75 -609484801 -879915486 104976005 1092603406 -25240833
            -298914936 -965813073 -111157381</internalNodes>
          <leafValues>
            -4.9558475613594055e-01 5.3352391719818115e-01</leafValues></_>
        <_>
          <internalNodes>
            0 -1 27 -789327649 -67374856 441997651 419522768 -906257717
            -100681061 -2042331000 -1147545335</internalNodes>
          <leafValues>
            -4.3465289473533630e-01 5.9745925664901733e-01</leafValues></_>
        <_>
          <internalNodes>
            0 -1 64 1917308074 1885005988 17088721 831946886 -744115541
            198947 1917283210 1943132831</internalNodes>
          <leafValues>
            -6.5279453992843628e-01 4.0879228711128235e-01</leafValues></_>
        <_>
          <internalNodes>
            0 -1 6 -352267496 -648849360 -2147448367 420483585
            -1607949618 -1694126040 1225759215 -4288294</internalNodes>
          <leafValues>
            -5.9963250160217285e-01 4.9015066027641296e-01</leafValues></_>
        <_>
          <internalNodes>
            0 -1 108 1282846483 475828756 -117165162 2020723987
            1121219483 2013298688 -509077241 -1965064285</internalNodes>
          <leafValues>
            -5.9797435998916626e-01 4.8107981681823730e-01</leafValues></_></weakClassifiers></_>
    <!-- stage 7 -->
    <_>
      <maxWeakCount>8</maxWeakCount>
      <stageThreshold>-1.3533850908279419e+00</stageThreshold>
      <weakClassifiers>
        <_>
          <internalNodes>
            0 -1 116 117670151 252825649 -2052730313 -1915492653
            814839735 1930166745 -87787133 2142888880</internalNodes>
          <leafValues>
            -6.8193382024765015e-01 3.3181124925613403e-01</leafValues></_>
        <_>
          <internalNodes>
            0 -1 74 -226036001 -299490906 -499072818 -1068530673
            -260902728 8429699 -875083573 -170132685</internalNodes>
          <leafValues>
            -5.5446600914001465e-01 4.2857322096824646e-01</leafValues></_>
        <_>
          <internalNodes>
            0 -1 18 2141322745 -1088835183 1069060649 -1078603663
            -1632044294 -1950805855 -562469665 -543426821</internalNodes>
          <leafValues>
            -3.8517338037490845e-01 6.8875342607498169e-01</leafValues></_>
        <_>
          <internalNodes>
            0 -1 135 -595082014 -1323960 117440612 1459818819
            -1953788470 -662695927 -2096854409 -40924562</internalNodes>
          <leafValues>
            -5.3653401136398315e-01 5.0946825742721558e-01</leafValues></_>
        <_>
          <internalNodes>
            0 -1 92 -1598925677 -134259529 -1090552329 -41739
            -1498235138 -524545 -1413562385 -1195682575</internalNodes>
          <leafValues>
            -5.0263202190399170e-01 5.6825709342956543e-01</leafValues></_>
        <_>
          <internalNodes>
            0 -1 31 -251602701 836462809 1362135295 -45790795
            -1946050149 -1741715456 1208013279 -1087880799</internalNodes>
          <leafValues>
            -5.4434370994567871e-01 5.5184072256088257e-01</leafValues></_>
        <_>
          <internalNodes>
            0 -1 13 -416821990 1468223568 268814720 521998410
            -1806587142 969638173 262177386 -99120538</internalNodes>
          <leafValues>
            -6.0583740472793579e-01 4.7897821664810181e-01</leafValues></_>
        <_>
          <internalNodes>
            0 -1 36 -210296872 1401751583 1125318712 26437983 1234664116
            1755385905 -1068924645 1868514239</internalNodes>
          <leafValues>
            -6.5586751699447632e-01 4.2849382758140564e-01</leafValues></_></weakClassifiers></_>
    <!-- stage 8 -->
    <_>
      <maxWeakCount>7</maxWeakCount>
      <stageThreshold>-1.0433052778244019e+00</stageThreshold>
      <weakClassifiers>
        <_>
          <internalNodes>
            0 -1 7 1361663089 -11535277 220283129 -1616256079 1841957098
            -1093992965 -18971905 -1182042005</internalNodes>
          <leafValues>
            -4.5176848769187927e-01 5.3971964120864868e-01</leafValues></_>
        <_>
          <internalNodes>
            0 -1 56 -747636827 -1652514176 1149798412 1091806095
            -1311695218 -1954375665 -1025319729 -1981291537</internalNodes>
          <leafValues>
            -5.6934416294097900e-01 4.4936239719390869e-01</leafValues></_>
        <_>
          <internalNodes>
            0 -1 122 235012221 -585694800 -559525673 -606207803
            -1455278849 -913665623 -1350000742 -1080414723</internalNodes>
          <leafValues>
            -5.1736122369766235e-01 4.6871200203895569e-01</leafValues></_>
        <_>
          <internalNodes>
            0 -1 35 -998257879 -783575217 -1831775728 1920524243
            -1857394162 1074858508 -959844144 1963451583</internalNodes>
          <leafValues>
            -6.0033947229385376e-01 4.3877655267715454e-01</leafValues></_>
        <_>
          <internalNodes>
            0 -1 5 2098240654 -115436768 269095964 1410028383 143360686
            -835665780 940939656 -815644359</internalNodes>
          <leafValues>
            -6.0197007656097412e-01 4.2578262090682983e-01</leafValues></_>
        <_>
          <internalNodes>
            0 -1 102 -531452961 -1289969386 -1070136589 957286412
            -531140290 1610652802 1124989502 1340738602</internalNodes>
          <leafValues>
            -6.7629796266555786e-01 3.8587087392807007e-01</leafValues></_>
        <_>
          <internalNodes>
            0 -1 73 1431171646 -1842427388 1343242253 56796140
            -529689709 171084201 -1341497237 1441521371</internalNodes>
          <leafValues>
            -6.3153797388076782e-01 4.4296181201934814e-01</leafValues></_></weakClassifiers></_>
    <!-- stage 9 -->
    <_>
      <maxWeakCount>7</maxWeakCount>
      <stageThreshold>-1.1374827623367310e+00</stageThreshold>
      <weakClassifiers>
        <_>
          <internalNodes>
            0 -1 85 -42781826 -1049816841 606077144 1607438623
            1506827708 1346437266 2031638766 1537997962</internalNodes>
          <leafValues>
            -6.3744074106216431e-01 3.4872612357139587e-01</leafValues></_>
        <_>
          <internalNodes>
            0 -1 60 950555869 -1679863600 1377210871 1568609777
            -1735790920 -1081597846 948095467 185301433</internalNodes>
          <leafValues>
            -5.7639586925506592e-01 4.0825209021568298e-01</leafValues></_>
        <_>
          <internalNodes>
            0 -1 99 -543167057 -5280837 -146558206 1729486851 -292581975
            -276101137 490611495 -564136393</internalNodes>
          <leafValues>
            -4.8056781291961670e-01 5.1565098762512207e-01</leafValues></_>
        <_>
          <internalNodes>
            0 -1 16 987265112 93390664 -2139091880 296949776 1150171227
            -1416748534 -1970746678 -1611009399</internalNodes>
          <leafValues>
            -7.1494966745376587e-01 3.9062929153442383e-01</leafValues></_>
        <_>
          <internalNodes>
            0 -1 10 1213627413 -1443602516 252647647 893646163
            1986446542 -306254554 -831717409 -45576628</internalNodes>
          <leafValues>
            -4.6975556015968323e-01 5.5584830045700073e-01</leafValues></_>
        <_>
          <internalNodes>
            0 -1 124 1493559551 1361903621 1619071257 923485215
            1378727104 1941963264 224516831 1363657373</internalNodes>
          <leafValues>
            -6.7265033721923828e-01 4.0454730391502380e-01</leafValues></_>
        <_>
          <internalNodes>
            0 -1 61 -1430432587 -854128460 -486059599 -105281455
            -1744789858 -53626824 411233017 -1471542888</internalNodes>
          <leafValues>
            -5.5275636911392212e-01 5.0666570663452148e-01</leafValues></_></weakClassifiers></_>
    <!-- stage 10 -->
    <_>
      <maxWeakCount>7</maxWeakCount>
      <stageThreshold>-9.2960822582244873e-01</stageThreshold>
      <weakClassifiers>
        <_>
          <internalNodes>
            0 -1 90 -570957857 -541584622 -15954468 1360267924
            1469580726 -525531114 -562001144 -71329048</internalNodes>
          <leafValues>
            -5.1627904176712036e-01 4.4390243291854858e-01</leafValues></_>
        <_>
          <internalNodes>
            0 -1 101 -545343489 -267352272 -989853068 589637660
            -902584395 -1066694622 1253280442 1249862270</internalNodes>
          <leafValues>
            -6.1162108182907104e-01 3.7559574842453003e-01</leafValues></_>
        <_>
          <internalNodes>
            0 -1 82 1319892697 -1912495350 -536583665 -1035917782
            -2032910213 -1375675765 -901136242 -146343453</internalNodes>
          <leafValues>
            -5.4195356369018555e-01 4.1927942633628845e-01</leafValues></_>
        <_>
          <internalNodes>
            0 -1 48 -1288480304 -644185964 154959349 1392527617
            -1318960214 -2110381847 86129627 -1934752591</internalNodes>
          <leafValues>
            -5.4320150613784790e-01 4.8051321506500244e-01</leafValues></_>
        <_>
          <internalNodes>
            0 -1 128 -761005172 -781532662 488018392 1435312973
            -653966546 -915341304 1896684783 1104141038</internalNodes>
          <leafValues>
            -5.8712053298950195e-01 3.9610394835472107e-01</leafValues></_>
        <_>
          <internalNodes>
            0 -1 42 451155165 -1651914846 402674397 1036321041
            -1735261554 -1638153565 446357435 -1962272683</internalNodes>
          <leafValues>
            -5.5605667829513550e-01 4.5714020729064941e-01</leafValues></_>
        <_>
          <internalNodes>
            0 -1 112 -1699127745 1034821625 -268435465 -67797127
            -1151628538 -33554440 -1078018100 -1431682571</internalNodes>
          <leafValues>
            -4.7801473736763000e-01 5.5737560987472534e-01</leafValues></_></weakClassifiers></_>
    <!-- stage 11 -->
    <_>
      <maxWeakCount>6</maxWeakCount>
      <stageThreshold>-7.5008648633956909e-01</stageThreshold>
      <weakClassifiers>
        <_>
          <internalNodes>
            0 -1 137 -648032054 2014527507 1099071738 1931186602
            1073803450 1894121627 1401485963 1393029819</internalNodes>
          <leafValues>
            -5.7003259658813477e-01 3.6047497391700745e-01</leafValues></_>
        <_>
          <internalNodes>
            0 -1 79 -355584418 -989679069 -1475522706 -1947377302
            1242925135 167841289 -905616698 -386926617</internalNodes>
          <leafValues>
            -5.7907992601394653e-01 3.7623506784439087e-01</leafValues></_>
        <_>
          <internalNodes>
            0 -1 46 -1177532196 -214744856 -1224296109 -73117118
            -1308577813 -41353087 -1196901381 43190520</internalNodes>
          <leafValues>
            -6.1114126443862915e-01 3.7948378920555115e-01</leafValues></_>
        <_>
          <internalNodes>
            0 -1 123 -1319144728 -228743104 406900936 428573644
            1760268736 1644192931 285770075 1406110173</internalNodes>
          <leafValues>
            -7.2685480117797852e-01 3.3781850337982178e-01</leafValues></_>
        <_>
          <internalNodes>
            0 -1 70 -1122346775 -138982288 -830487563 322406341
            -22894438 -2131221 841602815 -14791187</internalNodes>
          <leafValues>
            -4.8029071092605591e-01 5.3463721275329590e-01</leafValues></_>
        <_>
          <internalNodes>
            0 -1 29 -1336599718 -678029962 -1593259502 -1660809830
            -1877544917 -1677390823 -729510230 -1356614997</internalNodes>
          <leafValues>
            -6.8343770503997803e-01 3.6668720841407776e-01</leafValues></_></weakClassifiers></_>
    <!-- stage 12 -->
    <_>
      <maxWeakCount>9</maxWeakCount>
      <stageThreshold>-1.6340720653533936e+00</stageThreshold>
      <weakClassifiers>
        <_>
          <internalNodes>
            0 -1 109 738461185 186601813 -741844550 -125274787
            1681939429 -828771360 430661167 -320865613</internalNodes>
          <leafValues>
            -6.8351066112518311e-01 3.0712166428565979e-01</leafValues></_>
        <_>
          <internalNodes>
            0 -1 34 -571753972 -12496704 1411592192 1364905971
            -782754044 30409034 1300439360 1431821767</internalNodes>
          <leafValues>
            -6.6101944446563721e-01 3.1222110986709595e-01</leafValues></_>
        <_>
          <internalNodes>
            0 -1 89 -354431057 -156841144 -436152494 -342963064
            1113934455 1371419864 -96419202 -17053958</internalNodes>
          <leafValues>
            -5.3424990177154541e-01 4.2316716909408569e-01</leafValues></_>
        <_>
          <internalNodes>
            0 -1 4 -1423796193 -1088861668 -754427253 -1659400020
            -286327428 -294650020 -972363538 -1413432593</internalNodes>
          <leafValues>
            -4.3640035390853882e-01 5.5378377437591553e-01</leafValues></_>
        <_>
          <internalNodes>
            0 -1 94 -550502483 -269046013 -268529921 1847978247
            -922106115 2113830271 -387244822 -656683941</internalNodes>
          <leafValues>
            -3.9333182573318481e-01 5.9042578935623169e-01</leafValues></_>
        <_>
          <internalNodes>
            0 -1 15 -47583015 -149195853 -1364086317 891509481
            1194455240 -1622147074 -555914757 -538712085</internalNodes>
          <leafValues>
            -3.6465939879417419e-01 6.8912309408187866e-01</leafValues></_>
        <_>
          <internalNodes>
            0 -1 33 1630563770 1372848136 679545196 1027163534
            -1598889554 -103759835 -2121141878 -873018169</internalNodes>
          <leafValues>
            -5.7050448656082153e-01 4.6834161877632141e-01</leafValues></_>
        <_>
          <internalNodes>
            0 -1 103 -205183485 833291777 -602544453 -1115570025
            -128429860 437878811 -1062362878 -15736117</internalNodes>
          <leafValues>
            -5.8806627988815308e-01 4.4684141874313354e-01</leafValues></_>
        <_>
          <internalNodes>
            0 -1 97 -553941893 -1456443509 -1922044033 639954723
            226336220 -1908465793 1294815084 -545263694</internalNodes>
          <leafValues>
            -5.3287196159362793e-01 5.6864005327224731e-01</leafValues></_></weakClassifiers></_>
    <!-- stage 13 -->
    <_>
      <maxWeakCount>7</maxWeakCount>
      <stageThreshold>-8.4755975008010864e-01</stageThreshold>
      <weakClassifiers>
        <_>
          <internalNodes>
            0 -1 62 -1635643256 -540983246 -1847363371 956371856
            -1196716902 -95506208 941660923 148329692</internalNodes>
          <leafValues>
            -7.0041608810424805e-01 2.9369106888771057e-01</leafValues></_>
        <_>
          <internalNodes>
            0 -1 87 -168693761 755017200 -1726659911 -224780256
            -1711226053 28568459 -82634118 -8952290</internalNodes>
          <leafValues>
            -4.7523114085197449e-01 4.8491397500038147e-01</leafValues></_>
        <_>
          <internalNodes>
            0 -1 113 -10634462 -983595264 277807120 1787103560
            -465307766 1141473931 -548086881 1607201998</internalNodes>
          <leafValues>
            -4.9520963430404663e-01 4.6206867694854736e-01</leafValues></_>
        <_>
          <internalNodes>
            0 -1 38 1018860977 -1187236222 -26807951 1551101029
            267071445 -61829080 745717949 -1207247683</internalNodes>
          <leafValues>
            -4.4548338651657104e-01 5.3914844989776611e-01</leafValues></_>
        <_>
          <internalNodes>
            0 -1 43 -298982774 -567991540 -485686509 -548558221
            -1817300090 -1967092992 34542587 1107407466</internalNodes>
          <leafValues>
            -6.3929498195648193e-01 3.9330407977104187e-01</leafValues></_>
        <_>
          <internalNodes>
            0 -1 8 1570987477 -1114518037 481872365 2032926505
            1683511394 -353111438 793706494 -1182008705</internalNodes>
          <leafValues>
            -4.5150479674339294e-01 6.1530280113220215e-01</leafValues></_>
        <_>
          <internalNodes>
            0 -1 1 -1958097828 -551628774 -1743666691 383751168
            -1962934194 167837976 -2147360324 2048456874</internalNodes>
          <leafValues>
            -5.5195033550262451e-01 4.8344260454177856e-01</leafValues></_></weakClassifiers></_>
    <!-- stage 14 -->
    <_>
      <maxWeakCount>7</maxWeakCount>
      <stageThreshold>-8.6012142896652222e-01</stageThreshold>
      <weakClassifiers>
        <_>
          <internalNodes>
            0 -1 115 -1539856475 201515555 80265745 976422163 -402577105
            1275199490 -2002902755 205255729</internalNodes>
          <leafValues>
            -7.3013490438461304e-01 2.7006280422210693e-01</leafValues></_>
        <_>
          <internalNodes>
            0 -1 106 -540290166 -803616554 285577512 -1266331230
            1366125738 1868319914 1363543811 2008019938</internalNodes>
          <leafValues>
            -7.1016037464141846e-01 2.8255206346511841e-01</leafValues></_>
        <_>
          <internalNodes>
            0 -1 23 1532586207 321421448 2023496093 1560664560
            -930178902 -1425506287 47509579 -1970647039</internalNodes>
          <leafValues>
            -4.8887085914611816e-01 4.9662387371063232e-01</leafValues></_>
        <_>
          <internalNodes>
            0 -1 78 -1632937759 -671196462 -876620943 1419139293
            -1625621526 -2113706 1042544595 -552887015</internalNodes>
          <leafValues>
            -4.4040185213088989e-01 5.4152458906173706e-01</leafValues></_>
        <_>
          <internalNodes>
            0 -1 129 -683293620 1349242884 1367413152 1361416650
            -376907058 -741537269 -1975473685 458197739</internalNodes>
          <leafValues>
            -5.4992705583572388e-01 4.1454795002937317e-01</leafValues></_>
        <_>
          <internalNodes>
            0 -1 0 1237953791 -145731510 -1679099201 -553571663
            -1078213126 -1743570322 -1361854469 -348418565</internalNodes>
          <leafValues>
            -4.2430800199508667e-01 6.0970699787139893e-01</leafValues></_>
        <_>
          <internalNodes>
            0 -1 125 792604191 -609222673 -1358954886 -1949892914
            2130003884 -411041969 -704655680 -320082010</internalNodes>
          <leafValues>
            -4.5543223619461060e-01 5.5579423904418945e-01</leafValues></_></weakClassifiers></_>
    <!-- stage 15 -->
    <_>
      <maxWeakCount>8</maxWeakCount>
      <stageThreshold>-1.4975802898406982e+00</stageThreshold>
      <weakClassifiers>
        <_>
          <internalNodes>
            0 -1 47 1563510794 -82956109 251845768 521635093 -913079361
            -1592967055 -620106002 -1895048693</internalNodes>
          <leafValues>
            -6.6666668653488159e-01 2.8781205415725708e-01</leafValues></_>
        <_>
          <internalNodes>
            0 -1 40 -754975057 -209554978 1669352078 851162071
            -708686833 369297423 -226479262 1935145919</internalNodes>
          <leafValues>
            -5.1208621263504028e-01 4.0736210346221924e-01</leafValues></_>
        <_>
          <internalNodes>
            0 -1 138 -83190872 -1618629242 793249583 1528763664
            1274476014 -659650004 -1357916754 -682914097</internalNodes>
          <leafValues>
            -4.3195387721061707e-01 5.0602859258651733e-01</leafValues></_>
        <_>
          <internalNodes>
            0 -1 119 105394807 -1371287085 536911995 -539721587 42467499
            1371538091 -649498099 -3248000</internalNodes>
          <leafValues>
            -6.1142838001251221e-01 4.0408498048782349e-01</leafValues></_>
        <_>
          <internalNodes>
            0 -1 14 -126222851 865690257 1054989951 462132185 -19241233
            -1079225861 -279970053 -1375053329</internalNodes>
          <leafValues>
            -4.3082597851753235e-01 5.5339324474334717e-01</leafValues></_>
        <_>
          <internalNodes>
            0 -1 53 -595549041 432333312 -1742495714 -686778030
            -377431929 209884027 -1551787613 21430091</internalNodes>
          <leafValues>
            -6.5277707576751709e-01 3.8234227895736694e-01</leafValues></_>
        <_>
          <internalNodes>
            0 -1 96 589893243 -251558997 317288511 474873869 -1944038326
            -1556619262 -1709786153 -1103820351</internalNodes>
          <leafValues>
            -5.5938547849655151e-01 4.6245300769805908e-01</leafValues></_>
        <_>
          <internalNodes>
            0 -1 39 1283433039 671961293 -221230926 -765359857
            1898344573 1610766447 -255098844 2012726230</internalNodes>
          <leafValues>
            -6.3403701782226562e-01 3.9444145560264587e-01</leafValues></_></weakClassifiers></_>
    <!-- stage 16 -->
    <_>
      <maxWeakCount>9</maxWeakCount>
      <stageThreshold>-1.2222676277160645e+00</stageThreshold>
      <weakClassifiers>
        <_>
          <internalNodes>
            0 -1 105 -107751509 1965998495 51024305 96199194 -645937783
            268636365 1147666570 -1523584269</internalNodes>
          <leafValues>
            -4.9379178881645203e-01 3.9601138234138489e-01</leafValues></_>
        <_>
          <internalNodes>
            0 -1 126 34752816 -1114105423 -317232307 499994832
            -1283785767 -1089477797 -1476203270 724063640</internalNodes>
          <leafValues>
            -7.0211321115493774e-01 2.8429219126701355e-01</leafValues></_>
        <_>
          <internalNodes>
            0 -1 21 -1215695623 1996722609 -662519555 -653965087
            537233647 -2130619414 -1719105061 1778405115</internalNodes>
          <leafValues>
            -4.9144217371940613e-01 4.2286497354507446e-01</leafValues></_>
        <_>
          <internalNodes>
            0 -1 58 -8475970 968401169 1956382727 420018701 -790982496
            153104529 -778743808 468651026</internalNodes>
          <leafValues>
            -6.0726821422576904e-01 3.7294396758079529e-01</leafValues></_>
        <_>
          <internalNodes>
            0 -1 71 2064494195 -69731973 -1655646578 -80674271 620815612
            -911599495 958657245 1803193225</internalNodes>
          <leafValues>
            -5.2385270595550537e-01 4.2126199603080750e-01</leafValues></_>
        <_>
          <internalNodes>
            0 -1 84 -11358745 1866566206 -1031186411 -766361534
            -620239990 165587475 377900658 -244684170</internalNodes>
          <leafValues>
            -5.1578217744827271e-01 4.6645486354827881e-01</leafValues></_>
        <_>
          <internalNodes>
            0 -1 26 520870660 1582167941 660552634 -113266211 801110760
            473132459 -2026948629 -687221158</internalNodes>
          <leafValues>
            -4.8806798458099365e-01 5.0558477640151978e-01</leafValues></_>
        <_>
          <internalNodes>
            0 -1 41 -385945362 978640903 55707173 1169072834 -1857387802
            407539730 1751739020 39577803</internalNodes>
          <leafValues>
            -6.1862623691558838e-01 3.9949434995651245e-01</leafValues></_>
        <_>
          <internalNodes>
            0 -1 2 -1511552806 2098565658 101324112 -2121099180
            -1973685622 1795985451 195732700 -1376288546</internalNodes>
          <leafValues>
            -6.4527094364166260e-01 3.8494133949279785e-01</leafValues></_></weakClassifiers></_>
    <!-- stage 17 -->
    <_>
      <maxWeakCount>9</maxWeakCount>
      <stageThreshold>-9.0507435798645020e-01</stageThreshold>
      <weakClassifiers>
        <_>
          <internalNodes>
            0 -1 116 86156595 755755025 -1868475201 -371244309 415586709
            2047582345 -120229213 2024406947</internalNodes>
          <leafValues>
            -6.3324540853500366e-01 2.8315946459770203e-01</leafValues></_>
        <_>
          <internalNodes>
            0 -1 55 1095221896 -577137720 554116872 -214713216
            1404564938 1991360999 -269398098 2131413633</internalNodes>
          <leafValues>
            -8.2261294126510620e-01 2.1676781773567200e-01</leafValues></_>
        <_>
          <internalNodes>
            0 -1 37 -286829581 1132628646 642403127 791013997 45582491
            -81307651 268406783 -1352757249</internalNodes>
          <leafValues>
            -3.6047115921974182e-01 6.2416177988052368e-01</leafValues></_>
        <_>
          <internalNodes>
            0 -1 28 -1146118982 497895576 505362525 -227734307
            -1430328597 -1354779058 975855339 -820060771</internalNodes>
          <leafValues>
            -4.4743359088897705e-01 4.7178244590759277e-01</leafValues></_>
        <_>
          <internalNodes>
            0 -1 88 -360667237 -635967076 1653898228 -251370843
            1158095703 1342883505 -81769272 -564408905</internalNodes>
          <leafValues>
            -4.9543973803520203e-01 4.3300953507423401e-01</leafValues></_>
        <_>
          <internalNodes>
            0 -1 17 1363727577 -1176257309 514511101 -106204591
            -237469933 -17302286 -1159139713 -1461022</internalNodes>
          <leafValues>
            -4.0555641055107117e-01 5.8048641681671143e-01</leafValues></_>
        <_>
          <internalNodes>
            0 -1 59 -77860577 -1320132524 -788519860 -1143729670
            -2146719376 -1837086520 1879222444 -644284501</internalNodes>
          <leafValues>
            -4.9568629264831543e-01 4.9082815647125244e-01</leafValues></_>
        <_>
          <internalNodes>
            0 -1 22 -209193660 -45674245 630429064 966205598 -792529190
            159977627 -601823541 1482183358</internalNodes>
          <leafValues>
            -6.0271930694580078e-01 3.9157798886299133e-01</leafValues></_>
        <_>
          <internalNodes>
            0 -1 51 589126175 -131465 2130050191 1338249784 -720321858
            -562135174 410516730 1007643739</internalNodes>
          <leafValues>
            -4.6710371971130371e-01 5.4648661613464355e-01</leafValues></_></weakClassifiers></_>
    <!-- stage 18 -->
    <_>
      <maxWeakCount>8</maxWeakCount>
      <stageThreshold>-8.3673071861267090e-01</stageThreshold>
      <weakClassifiers>
        <_>
          <internalNodes>
            0 -1 134 1501816010 -706645937 25495650 1930903835
            -993918719 59490886 -1045905429 -619747365</internalNodes>
          <leafValues>
            -5.4130434989929199e-01 3.3728814125061035e-01</leafValues></_>
        <_>
          <internalNodes>
            0 -1 77 -2138779397 1398306873 344837776 519168084 986716318
            -88547126 1790752691 -1701291875</internalNodes>
          <leafValues>
            -5.3215879201889038e-01 3.6660134792327881e-01</leafValues></_>
        <_>
          <internalNodes>
            0 -1 69 -1182048549 -1882912 1102706175 -627813899 958024410
            -1845877120 461614011 -838330933</internalNodes>
          <leafValues>
            -4.3549290299415588e-01 4.7159895300865173e-01</leafValues></_>
        <_>
          <internalNodes>
            0 -1 50 -1868047107 -1618951096 303054961 119083505
            -661513717 -609709941 50999559 151715905</internalNodes>
          <leafValues>
            -4.9960589408874512e-01 4.5016434788703918e-01</leafValues></_>
        <_>
          <internalNodes>
            0 -1 66 -21060601 829739183 -133118834 -213790459 -508854134
            17838304 -368466997 1090781067</internalNodes>
          <leafValues>
            -5.9396386146545410e-01 3.6145451664924622e-01</leafValues></_>
        <_>
          <internalNodes>
            0 -1 120 17382673 -1848269340 1568769527 1552786851
            1564288419 -20027155 -1114361819 -388505279</internalNodes>
          <leafValues>
            -5.8642691373825073e-01 3.9220008254051208e-01</leafValues></_>
        <_>
          <internalNodes>
            0 -1 30 1185149140 -794451518 -1702869895 186463418
            278698710 -95772431 1209383400 198364314</internalNodes>
          <leafValues>
            -6.0121428966522217e-01 4.1414293646812439e-01</leafValues></_>
        <_>
          <internalNodes>
            0 -1 132 -192283040 1084244654 674375872 51716545
            -1677551704 1645121552 35767899 915390443</internalNodes>
          <leafValues>
            -6.8642663955688477e-01 3.5520103573799133e-01</leafValues></_></weakClassifiers></_>
    <!-- stage 19 -->
    <_>
      <maxWeakCount>9</maxWeakCount>
      <stageThreshold>-1.0968706607818604e+00</stageThreshold>
      <weakClassifiers>
        <_>
          <internalNodes>
            0 -1 95 -2078343137 -294633075 201712990 -253713672
            -115907885 -1182744512 -4257076 -162276686</internalNodes>
          <leafValues>
            -4.9609375000000000e-01 3.7918215990066528e-01</leafValues></_>
        <_>
          <internalNodes>
            0 -1 127 -782740252 1372264568 1267143243 1483278472
            -1597192184 -603387134 -1073640293 825257483</internalNodes>
          <leafValues>
            -6.2294906377792358e-01 3.0676889419555664e-01</leafValues></_>
        <_>
          <internalNodes>
            0 -1 80 1769404319 999220484 -871313755 1223447044
            -268266542 766067076 282378289 1895759196</internalNodes>
          <leafValues>
            -5.4355680942535400e-01 3.7129506468772888e-01</leafValues></_>
        <_>
          <internalNodes>
            0 -1 91 -1456847491 -1983557259 -1283376873 1003648717
            883185689 -24381103 -1190463047 456661469</internalNodes>
          <leafValues>
            -5.4558461904525757e-01 4.1094955801963806e-01</leafValues></_>
        <_>
          <internalNodes>
            0 -1 44 -1393035866 479334277 -2024501758 1454625957
            -239543307 1378906560 9689738 -86773586</internalNodes>
          <leafValues>
            -5.8520239591598511e-01 3.6525997519493103e-01</leafValues></_>
        <_>
          <internalNodes>
            0 -1 52 -1592502 1459334913 514734568 1911373742 -45088956
            137882890 1828593390 -340919377</internalNodes>
          <leafValues>
            -4.3270635604858398e-01 5.2674895524978638e-01</leafValues></_>
        <_>
          <internalNodes>
            0 -1 121 152143123 420987026 554018849 1029080152 -918852897
            -1098084207 -2004729133 -84679773</internalNodes>
          <leafValues>
            -5.4881334304809570e-01 4.1403505206108093e-01</leafValues></_>
        <_>
          <internalNodes>
            0 -1 136 -930757758 -1803464488 -1862098529 1506054754
            -923964750 -930775039 166843039 1246103178</internalNodes>
          <leafValues>
            -5.6855601072311401e-01 4.2120525240898132e-01</leafValues></_>
        <_>
          <internalNodes>
            0 -1 12 1397619929 -5280782 -142482561 1320792467 955928826
            -16960013 1928773866 977161467</internalNodes>
          <leafValues>
            -4.6291866898536682e-01 5.2544742822647095e-01</leafValues></_></weakClassifiers></_></stages>
  <features>
    <_>
      <rect>
        5 25 27 16</rect></_>
    <_>
      <rect>
        8 26 28 8</rect></_>
    <_>
      <rect>
        9 14 32 12</rect></_>
    <_>
      <rect>
        13 11 25 13</rect></_>
    <_>
      <rect>
        14 24 31 11</rect></_>
    <_>
      <rect>
        15 16 34 10</rect></_>
    <_>
      <rect>
        16 15 26 9</rect></_>
    <_>
      <rect>
        16 38 25 9</rect></_>
    <_>
      <rect>
        17 35 20 11</rect></_>
    <_>
      <rect>
        18 16 28 11</rect></_>
    <_>
      <rect>
        18 32 28 8</rect></_>
    <_>
      <rect>
        20 38 28 11</rect></_>
    <_>
      <rect>
        20 42 25 9</rect></_>
    <_>
      <rect>
        22 16 22 14</rect></_>
    <_>
      <rect>
        23 40 17 10</rect></_>
    <_>
      <rect>
        23 40 20 7</rect></_>
    <_>
      <rect>
        24 27 30 14</rect></_>
    <_>
      <rect>
        24 35 25 11</rect></_>
    <_>
      <rect>
        25 42 19 8</rect></_>
    <_>
      <rect>
        26 44 23 10</rect></_>
    <_>
      <rect>
        27 22 27 16</rect></_>
    <_>
      <rect>
        27 45 16 8</rect></_>
    <_>
      <rect>
        28 40 8 6</rect></_>
    <_>
      <rect>
        29 42 23 10</rect></_>
    <_>
      <rect>
        29 43 19 11</rect></_>
    <_>
      <rect>
        30 28 12 8</rect></_>
    <_>
      <rect>
        30 33 7 5</rect></_>
    <_>
      <rect>
        34 44 23 7</rect></_>
    <_>
      <rect>
        35 13 13 5</rect></_>
    <_>
      <rect>
        35 25 16 12</rect></_>
    <_>
      <rect>
        35 45 13 4</rect></_>
    <_>
      <rect>
        36 46 13 10</rect></_>
    <_>
      <rect>
        37 13 15 14</rect></_>
    <_>
      <rect>
        38 20 17 11</rect></_>
    <_>
      <rect>
        38 33 4 7</rect></_>
    <_>
      <rect>
        38 34 4 3</rect></_>
    <_>
      <rect>
        39 31 5 9</rect></_>
    <_>
      <rect>
        39 40 20 4</rect></_>
    <_>
      <rect>
        39 55 12 5</rect></_>
    <_>
      <rect>
        40 37 2 2</rect></_>
    <_>
      <rect>
        40 37 3 4</rect></_>
    <_>
      <rect>
        41 28 4 9</rect></_>
    <_>
      <rect>
        41 44 21 9</rect></_>
    <_>
      <rect>
        42 25 5 7</rect></_>
    <_>
      <rect>
        42 25 11 9</rect></_>
    <_>
      <rect>
        42 31 8 15</rect></_>
    <_>
      <rect>
        43 16 5 4</rect></_>
    <_>
      <rect>
        43 40 11 6</rect></_>
    <_>
      <rect>
        44 4 16 11</rect></_>
    <_>
      <rect>
        44 26 11 15</rect></_>
    <_>
      <rect>
        44 46 19 5</rect></_>
    <_>
      <rect>
        45 24 16 13</rect></_>
    <_>
      <rect>
        45 35 4 5</rect></_>
    <_>
      <rect>
        45 35 6 4</rect></_>
    <_>
      <rect>
        45 41 10 7</rect></_>
    <_>
      <rect>
        46 27 11 9</rect></_>
    <_>
      <rect>
        46 31 8 7</rect></_>
    <_>
      <rect>
        47 15 10 5</rect></_>
    <_>
      <rect>
        47 37 5 7</rect></_>
    <_>
      <rect>
        47 45 6 6</rect></_>
    <_>
      <rect>
        48 11 8 5</rect></_>
    <_>
      <rect>
        48 15 6 4</rect></_>
    <_>
      <rect>
        48 16 7 4</rect></_>
    <_>
      <rect>
        48 22 9 11</rect></_>
    <_>
      <rect>
        48 25 5 9</rect></_>
    <_>
      <rect>
        48 32 4 6</rect></_>
    <_>
      <rect>
        48 38 5 4</rect></_>
    <_>
      <rect>
        48 47 13 8</rect></_>
    <_>
      <rect>
        49 11 10 5</rect></_>
    <_>
      <rect>
        49 12 10 5</rect></_>
    <_>
      <rect>
        49 17 9 4</rect></_>
    <_>
      <rect>
        49 23 14 12</rect></_>
    <_>
      <rect>
        49 30 9 11</rect></_>
    <_>
      <rect>
        50 25 5 12</rect></_>
    <_>
      <rect>
        50 29 6 7</rect></_>
    <_>
      <rect>
        50 29 6 8</rect></_>
    <_>
      <rect>
        50 32 8 9</rect></_>
    <_>
      <rect>
        50 48 11 8</rect></_>
    <_>
      <rect>
        51 11 13 5</rect></_>
    <_>
      <rect>
        51 26 6 7</rect></_>
    <_>
      <rect>
        51 28 5 9</rect></_>
    <_>
      <rect>
        51 31 5 7</rect></_>
    <_>
      <rect>
        52 26 5 9</rect></_>
    <_>
      <rect>
        52 28 5 8</rect></_>
    <_>
      <rect>
        52 31 3 5</rect></_>
    <_>
      <rect>
        52 37 8 9</rect></_>
    <_>
      <rect>
        53 14 5 4</rect></_>
    <_>
      <rect>
        53 34 3 3</rect></_>
    <_>
      <rect>
        53 36 4 4</rect></_>
    <_>
      <rect>
        53 38 4 2</rect></_>
    <_>
      <rect>
        53 41 5 9</rect></_>
    <_>
      <rect>
        54 14 3 2</rect></_>
    <_>
      <rect>
        54 15 4 4</rect></_>
    <_>
      <rect>
        54 27 5 8</rect></_>
    <_>
      <rect>
        54 30 3 8</rect></_>
    <_>
      <rect>
        54 38 2 3</rect></_>
    <_>
      <rect>
        55 18 4 2</rect></_>
    <_>
      <rect>
        55 26 4 7</rect></_>
    <_>
      <rect>
        55 27 4 8</rect></_>
    <_>
      <rect>
        55 28 5 8</rect></_>
    <_>
      <rect>
        55 30 11 8</rect></_>
    <_>
      <rect>
        55 32 3 5</rect></_>
    <_>
      <rect>
        55 34 3 4</rect></_>
    <_>
      <rect>
        55 37 5 3</rect></_>
    <_>
      <rect>
        55 38 3 2</rect></_>
    <_>
      <rect>
        56 28 5 7</rect></_>
    <_>
      <rect>
        56 29 6 6</rect></_>
    <_>
      <rect>
        56 30 4 7</rect></_>
    <_>
      <rect>
        56 36 3 4</rect></_>
    <_>
      <rect>
        56 39 3 3</rect></_>
    <_>
      <rect>
        57 15 5 4</rect></_>
    <_>
      <rect>
        57 29 7 10</rect></_>
    <_>
      <rect>
        58 16 3 2</rect></_>
    <_>
      <rect>
        58 25 7 9</rect></_>
    <_>
      <rect>
        58 31 8 6</rect></_>
    <_>
      <rect>
        58 34 3 5</rect></_>
    <_>
      <rect>
        58 37 3 3</rect></_>
    <_>
      <rect>
        58 38 2 3</rect></_>
    <_>
      <rect>
        58 39 2 2</rect></_>
    <_>
      <rect>
        59 39 1 2</rect></_>
    <_>
      <rect>
        59 41 2 2</rect></_>
    <_>
      <rect>
        60 39 2 2</rect></_>
    <_>
      <rect>
        61 14 3 3</rect></_>
    <_>
      <rect>
        61 33 7 5</rect></_>
    <_>
      <rect>
        62 27 7 7</rect></_>
    <_>
      <rect>
        62 35 2 2</rect></_>
    <_>
      <rect>
        64 13 3 3</rect></_>
    <_>
      <rect>
        64 23 7 4</rect></_>
    <_>
      <rect>
        68 26 6 7</rect></_>
    <_>
      <rect>
        68 27 6 4</rect></_>
    <_>
      <rect>
        68 35 4 7</rect></_>
    <_>
      <rect>
        69 27 5 9</rect></_>
    <_>
      <rect>
        69 35 5 6</rect></_>
    <_>
      <rect>
        70 29 7 6</rect></_>
    <_>
      <rect>
        70 33 6 3</rect></_>
    <_>
      <rect>
        70 35 7 4</rect></_>
    <_>
      <rect>
        73 8 5 13</rect></_>
    <_>
      <rect>
        77 27 7 5</rect></_>
    <_>
      <rect>
        84 34 8 6</rect></_></features></cascade>
</opencv_storage>
