<?xml version="1.0"?>
<opencv_storage>
<cascade>
  <stageType>BOOST</stageType>
  <featureType>HAAR</featureType>
  <height>40</height>
  <width>80</width>
  <stageParams>
    <boostType>GAB</boostType>
    <minHitRate>9.9900001287460327e-01</minHitRate>
    <maxFalseAlarm>5.0000000000000000e-01</maxFalseAlarm>
    <weightTrimRate>9.4999999999999996e-01</weightTrimRate>
    <maxDepth>1</maxDepth>
    <maxWeakCount>100</maxWeakCount></stageParams>
  <featureParams>
    <maxCatCount>0</maxCatCount>
    <featSize>1</featSize>
    <mode>ALL</mode></featureParams>
  <stageNum>20</stageNum>
  <stages>
    <!-- stage 0 -->
    <_>
      <maxWeakCount>6</maxWeakCount>
      <stageThreshold>-1.1581569910049438e+00</stageThreshold>
      <weakClassifiers>
        <_>
          <internalNodes>
            0 -1 165 2.2949045524001122e-03</internalNodes>
          <leafValues>
            -5.9848487377166748e-01 6.6791045665740967e-01</leafValues></_>
        <_>
          <internalNodes>
            0 -1 273 1.3889892725273967e-03</internalNodes>
          <leafValues>
            -4.3341514468193054e-01 6.1357659101486206e-01</leafValues></_>
        <_>
          <internalNodes>
            0 -1 242 -2.8248815797269344e-03</internalNodes>
          <leafValues>
            4.9597322940826416e-01 -4.9495479464530945e-01</leafValues></_>
        <_>
          <internalNodes>
            0 -1 205 2.4787080474197865e-03</internalNodes>
          <leafValues>
            -4.9554526805877686e-01 4.1114902496337891e-01</leafValues></_>
        <_>
          <internalNodes>
            0 -1 366 1.1617855634540319e-03</internalNodes>
          <leafValues>
            -3.4041544795036316e-01 6.0899335145950317e-01</leafValues></_>
        <_>
          <internalNodes>
            0 -1 75 -4.8628654330968857e-03</internalNodes>
          <leafValues>
            -7.9462242126464844e-01 2.9796427488327026e-01</leafValues></_></weakClassifiers></_>
    <!-- stage 1 -->
    <_>
      <maxWeakCount>10</maxWeakCount>
      <stageThreshold>-9.0862369537353516e-01</stageThreshold>
      <weakClassifiers>
        <_>
          <internalNodes>
            0 -1 127 6.4826309680938721e-03</internalNodes>
          <leafValues>
            -4.2115026712417603e-01 5.9095191955566406e-01</leafValues></_>
        <_>
          <internalNodes>
            0 -1 262 1.5917099080979824e-03</internalNodes>
          <leafValues>
            -4.0250325202941895e-01 4.5403817296028137e-01</leafValues></_>
        <_>
          <internalNodes>
            0 -1 355 9.7677356097847223e-04</internalNodes>
          <leafValues>
            -2.5403520464897156e-01 6.0352081060409546e-01</leafValues></_>
        <_>
          <internalNodes>
            0 -1 20 -1.7731938511133194e-02</internalNodes>
          <leafValues>
            5.6020379066467285e-01 -2.9549193382263184e-01</leafValues></_>
        <_>
          <internalNodes>
            0 -1 384 3.0531114898622036e-03</internalNodes>
          <leafValues>
            -1.8870487809181213e-01 6.6426801681518555e-01</leafValues></_>
        <_>
          <internalNodes>
            0 -1 86 6.3548353500664234e-04</internalNodes>
          <leafValues>
            -2.1737617254257202e-01 6.1416298151016235e-01</leafValues></_>
        <_>
          <internalNodes>
            0 -1 271 -1.3295276090502739e-02</internalNodes>
          <leafValues>
            -9.1884261369705200e-01 1.7500287294387817e-01</leafValues></_>
        <_>
          <internalNodes>
            0 -1 19 -1.0553476959466934e-01</internalNodes>
          <leafValues>
            -7.4303537607192993e-01 1.5238571166992188e-01</leafValues></_>
        <_>
          <internalNodes>
            0 -1 378 7.3201972991228104e-03</internalNodes>
          <leafValues>
            1.4784494042396545e-01 -8.6548131704330444e-01</leafValues></_>
        <_>
          <internalNodes>
            0 -1 69 6.2691012863069773e-04</internalNodes>
          <leafValues>
            -3.0536672472953796e-01 4.4412395358085632e-01</leafValues></_></weakClassifiers></_>
    <!-- stage 2 -->
    <_>
      <maxWeakCount>12</maxWeakCount>
      <stageThreshold>-8.7255972623825073e-01</stageThreshold>
      <weakClassifiers>
        <_>
          <internalNodes>
            0 -1 259 -5.5878015700727701e-04</internalNodes>
          <leafValues>
            5.9292036294937134e-01 -1.9540229439735413e-01</leafValues></_>
        <_>
          <internalNodes>
            0 -1 282 -1.2480750447139144e-03</internalNodes>
          <leafValues>
            3.2332894206047058e-01 -4.7584757208824158e-01</leafValues></_>
        <_>
          <internalNodes>
            0 -1 223 3.7281927652657032e-03</internalNodes>
          <leafValues>
            -2.8838607668876648e-01 4.8901891708374023e-01</leafValues></_>
        <_>
          <internalNodes>
            0 -1 135 -6.8139113485813141e-02</internalNodes>
          <leafValues>
            -8.6312383413314819e-01 1.6818860173225403e-01</leafValues></_>
        <_>
          <internalNodes>
            0 -1 43 3.2118298113346100e-02</internalNodes>
          <leafValues>
            1.2076189368963242e-01 -9.4080626964569092e-01</leafValues></_>
        <_>
          <internalNodes>
            0 -1 113 3.3288714475929737e-03</internalNodes>
          <leafValues>
            -2.3103865981101990e-01 6.0938823223114014e-01</leafValues></_>
        <_>
          <internalNodes>
            0 -1 73 -5.5092433467507362e-04</internalNodes>
          <leafValues>
            5.0524216890335083e-01 -2.5342151522636414e-01</leafValues></_>
        <_>
          <internalNodes>
            0 -1 367 1.8527844222262502e-03</internalNodes>
          <leafValues>
            -2.1489416062831879e-01 5.2936422824859619e-01</leafValues></_>
        <_>
          <internalNodes>
            0 -1 23 -1.3470865786075592e-02</internalNodes>
          <leafValues>
            7.9870945215225220e-01 -1.5022642910480499e-01</leafValues></_>
        <_>
          <internalNodes>
            0 -1 322 2.6475360617041588e-02</internalNodes>
          <leafValues>
            1.9782303273677826e-01 -8.1419873237609863e-01</leafValues></_>
        <_>
          <internalNodes>
            0 -1 401 2.3785522207617760e-03</internalNodes>
          <leafValues>
            -2.4928314983844757e-01 5.5364489555358887e-01</leafValues></_>
        <_>
          <internalNodes>
            0 -1 91 -1.5995385125279427e-02</internalNodes>
          <leafValues>
            -8.2249683141708374e-01 1.7381776869297028e-01</leafValues></_></weakClassifiers></_>
    <!-- stage 3 -->
    <_>
      <maxWeakCount>14</maxWeakCount>
      <stageThreshold>-1.2920833826065063e+00</stageThreshold>
      <weakClassifiers>
        <_>
          <internalNodes>
            0 -1 238 -9.4203627668321133e-05</internalNodes>
          <leafValues>
            5.6907218694686890e-01 -2.4126984179019928e-01</leafValues></_>
        <_>
          <internalNodes>
            0 -1 199 2.5595235638320446e-03</internalNodes>
          <leafValues>
            -3.6429235339164734e-01 3.9939340949058533e-01</leafValues></_>
        <_>
          <internalNodes>
            0 -1 334 1.2686562258750200e-03</internalNodes>
          <leafValues>
            -2.5753420591354370e-01 4.6995842456817627e-01</leafValues></_>
        <_>
          <internalNodes>
            0 -1 314 2.3626619076821953e-04</internalNodes>
          <leafValues>
            -2.6322951912879944e-01 4.4647100567817688e-01</leafValues></_>
        <_>
          <internalNodes>
            0 -1 182 1.1233985424041748e-03</internalNodes>
          <leafValues>
            -2.8120765089988708e-01 4.7028282284736633e-01</leafValues></_>
        <_>
          <internalNodes>
            0 -1 392 -1.5238175401464105e-03</internalNodes>
          <leafValues>
            6.9954961538314819e-01 -1.9032135605812073e-01</leafValues></_>
        <_>
          <internalNodes>
            0 -1 391 -1.6829101368784904e-02</internalNodes>
          <leafValues>
            -7.8793084621429443e-01 2.4083295464515686e-01</leafValues></_>
        <_>
          <internalNodes>
            0 -1 368 -1.0229300241917372e-03</internalNodes>
          <leafValues>
            4.2812365293502808e-01 -3.0545568466186523e-01</leafValues></_>
        <_>
          <internalNodes>
            0 -1 83 -2.8207115828990936e-02</internalNodes>
          <leafValues>
            -7.9911053180694580e-01 1.9317366182804108e-01</leafValues></_>
        <_>
          <internalNodes>
            0 -1 93 -1.3973088935017586e-03</internalNodes>
          <leafValues>
            4.9552741646766663e-01 -2.7744668722152710e-01</leafValues></_>
        <_>
          <internalNodes>
            0 -1 114 -2.5258280336856842e-02</internalNodes>
          <leafValues>
            -7.3675197362899780e-01 1.7182461917400360e-01</leafValues></_>
        <_>
          <internalNodes>
            0 -1 33 2.9941084794700146e-03</internalNodes>
          <leafValues>
            -2.4588908255100250e-01 5.4406440258026123e-01</leafValues></_>
        <_>
          <internalNodes>
            0 -1 31 1.6041004657745361e-01</internalNodes>
          <leafValues>
            1.6615909337997437e-01 -8.9130777120590210e-01</leafValues></_>
        <_>
          <internalNodes>
            0 -1 321 -2.1696597104892135e-04</internalNodes>
          <leafValues>
            3.6999389529228210e-01 -3.7100660800933838e-01</leafValues></_></weakClassifiers></_>
    <!-- stage 4 -->
    <_>
      <maxWeakCount>18</maxWeakCount>
      <stageThreshold>-1.1497550010681152e+00</stageThreshold>
      <weakClassifiers>
        <_>
          <internalNodes>
            0 -1 256 -1.8106617499142885e-03</internalNodes>
          <leafValues>
            4.2926433682441711e-01 -3.6088153719902039e-01</leafValues></_>
        <_>
          <internalNodes>
            0 -1 244 1.8059869762510061e-03</internalNodes>
          <leafValues>
            -1.9799770414829254e-01 5.1443779468536377e-01</leafValues></_>
        <_>
          <internalNodes>
            0 -1 96 -2.0851464942097664e-03</internalNodes>
          <leafValues>
            6.2335163354873657e-01 -1.7661128938198090e-01</leafValues></_>
        <_>
          <internalNodes>
            0 -1 63 -1.9190210849046707e-02</internalNodes>
          <leafValues>
            -8.1781160831451416e-01 1.3166907429695129e-01</leafValues></_>
        <_>
          <internalNodes>
            0 -1 290 9.3173654749989510e-04</internalNodes>
          <leafValues>
            -3.6807724833488464e-01 3.2892897725105286e-01</leafValues></_>
        <_>
          <internalNodes>
            0 -1 37 4.8834353685379028e-02</internalNodes>
          <leafValues>
            1.3144810497760773e-01 -7.6567822694778442e-01</leafValues></_>
        <_>
          <internalNodes>
            0 -1 233 5.1419790834188461e-03</internalNodes>
          <leafValues>
            -2.5307559967041016e-01 4.0450543165206909e-01</leafValues></_>
        <_>
          <internalNodes>
            0 -1 67 -1.4753257855772972e-02</internalNodes>
          <leafValues>
            -6.7851597070693970e-01 1.5963841974735260e-01</leafValues></_>
        <_>
          <internalNodes>
            0 -1 85 4.0443584322929382e-02</internalNodes>
          <leafValues>
            1.0787738859653473e-01 -8.5454082489013672e-01</leafValues></_>
        <_>
          <internalNodes>
            0 -1 356 4.3383386218920350e-04</internalNodes>
          <leafValues>
            -2.2736153006553650e-01 4.7721970081329346e-01</leafValues></_>
        <_>
          <internalNodes>
            0 -1 376 1.1703553609549999e-03</internalNodes>
          <leafValues>
            -2.3096242547035217e-01 4.9198666214942932e-01</leafValues></_>
        <_>
          <internalNodes>
            0 -1 309 -4.2542757000774145e-04</internalNodes>
          <leafValues>
            -7.6651179790496826e-01 1.4237241446971893e-01</leafValues></_>
        <_>
          <internalNodes>
            0 -1 171 5.2981763146817684e-03</internalNodes>
          <leafValues>
            -1.8841095268726349e-01 5.7393538951873779e-01</leafValues></_>
        <_>
          <internalNodes>
            0 -1 162 8.3132814615964890e-03</internalNodes>
          <leafValues>
            1.3878302276134491e-01 -9.3303769826889038e-01</leafValues></_>
        <_>
          <internalNodes>
            0 -1 358 1.0172710753977299e-03</internalNodes>
          <leafValues>
            -2.1924337744712830e-01 5.5474519729614258e-01</leafValues></_>
        <_>
          <internalNodes>
            0 -1 108 1.6081525012850761e-02</internalNodes>
          <leafValues>
            -5.8956021070480347e-01 2.1599248051643372e-01</leafValues></_>
        <_>
          <internalNodes>
            0 -1 344 2.2416897118091583e-03</internalNodes>
          <leafValues>
            -1.8484750390052795e-01 6.1823123693466187e-01</leafValues></_>
        <_>
          <internalNodes>
            0 -1 70 -9.2969462275505066e-03</internalNodes>
          <leafValues>
            6.9868624210357666e-01 -1.3356088101863861e-01</leafValues></_></weakClassifiers></_>
    <!-- stage 5 -->
    <_>
      <maxWeakCount>17</maxWeakCount>
      <stageThreshold>-1.0785692930221558e+00</stageThreshold>
      <weakClassifiers>
        <_>
          <internalNodes>
            0 -1 274 2.3066076391842216e-04</internalNodes>
          <leafValues>
            -2.8364390134811401e-01 4.8075202107429504e-01</leafValues></_>
        <_>
          <internalNodes>
            0 -1 302 2.3033835532260127e-06</internalNodes>
          <leafValues>
            -3.4871941804885864e-01 3.2623392343521118e-01</leafValues></_>
        <_>
          <internalNodes>
            0 -1 311 -8.5295047610998154e-03</internalNodes>
          <leafValues>
            -8.7968838214874268e-01 1.2852704524993896e-01</leafValues></_>
        <_>
          <internalNodes>
            0 -1 350 2.3012829478830099e-03</internalNodes>
          <leafValues>
            -1.7718482017517090e-01 7.2369360923767090e-01</leafValues></_>
        <_>
          <internalNodes>
            0 -1 364 1.4487158041447401e-03</internalNodes>
          <leafValues>
            -2.2246089577674866e-01 4.8042696714401245e-01</leafValues></_>
        <_>
          <internalNodes>
            0 -1 381 1.0758542921394110e-03</internalNodes>
          <leafValues>
            -2.3447582125663757e-01 4.3176758289337158e-01</leafValues></_>
        <_>
          <internalNodes>
            0 -1 227 -1.5474762767553329e-03</internalNodes>
          <leafValues>
            -7.4361664056777954e-01 1.7482557892799377e-01</leafValues></_>
        <_>
          <internalNodes>
            0 -1 107 1.2820215197280049e-03</internalNodes>
          <leafValues>
            -2.1195535361766815e-01 5.5753928422927856e-01</leafValues></_>
        <_>
          <internalNodes>
            0 -1 406 1.5157494926825166e-03</internalNodes>
          <leafValues>
            -1.4048844575881958e-01 7.9754668474197388e-01</leafValues></_>
        <_>
          <internalNodes>
            0 -1 279 1.2873474042862654e-03</internalNodes>
          <leafValues>
            -2.3965032398700714e-01 4.5313271880149841e-01</leafValues></_>
        <_>
          <internalNodes>
            0 -1 370 2.9042344540357590e-02</internalNodes>
          <leafValues>
            1.9482971727848053e-01 -6.5152031183242798e-01</leafValues></_>
        <_>
          <internalNodes>
            0 -1 74 -1.0958741419017315e-02</internalNodes>
          <leafValues>
            -8.2646834850311279e-01 1.0372785478830338e-01</leafValues></_>
        <_>
          <internalNodes>
            0 -1 126 6.1528664082288742e-04</internalNodes>
          <leafValues>
            -2.0942957699298859e-01 5.6099569797515869e-01</leafValues></_>
        <_>
          <internalNodes>
            0 -1 15 -1.2521891854703426e-02</internalNodes>
          <leafValues>
            5.7451432943344116e-01 -1.6298796236515045e-01</leafValues></_>
        <_>
          <internalNodes>
            0 -1 143 6.1072288081049919e-03</internalNodes>
          <leafValues>
            1.4986316859722137e-01 -7.8705310821533203e-01</leafValues></_>
        <_>
          <internalNodes>
            0 -1 246 -1.0996481869369745e-03</internalNodes>
          <leafValues>
            7.7966946363449097e-01 -1.5473008155822754e-01</leafValues></_>
        <_>
          <internalNodes>
            0 -1 265 9.4712295322096907e-06</internalNodes>
          <leafValues>
            -3.8265118002891541e-01 2.7053079009056091e-01</leafValues></_></weakClassifiers></_>
    <!-- stage 6 -->
    <_>
      <maxWeakCount>19</maxWeakCount>
      <stageThreshold>-1.0626862049102783e+00</stageThreshold>
      <weakClassifiers>
        <_>
          <internalNodes>
            0 -1 303 -5.9846104704774916e-05</internalNodes>
          <leafValues>
            -5.0000000000000000e-01 4.0090090036392212e-01</leafValues></_>
        <_>
          <internalNodes>
            0 -1 303 5.5054733820725232e-05</internalNodes>
          <leafValues>
            2.5428256392478943e-01 -4.3115872144699097e-01</leafValues></_>
        <_>
          <internalNodes>
            0 -1 269 1.2783312704414129e-03</internalNodes>
          <leafValues>
            -3.3823180198669434e-01 2.9206174612045288e-01</leafValues></_>
        <_>
          <internalNodes>
            0 -1 423 5.7848310098052025e-03</internalNodes>
          <leafValues>
            -1.5996876358985901e-01 5.9950768947601318e-01</leafValues></_>
        <_>
          <internalNodes>
            0 -1 258 4.1032861918210983e-03</internalNodes>
          <leafValues>
            -3.7420639395713806e-01 2.4481086432933807e-01</leafValues></_>
        <_>
          <internalNodes>
            0 -1 226 -2.6448224671185017e-03</internalNodes>
          <leafValues>
            -6.8782210350036621e-01 1.5235939621925354e-01</leafValues></_>
        <_>
          <internalNodes>
            0 -1 221 3.5140572581440210e-03</internalNodes>
          <leafValues>
            9.9487103521823883e-02 -7.5010216236114502e-01</leafValues></_>
        <_>
          <internalNodes>
            0 -1 96 -2.6221284642815590e-03</internalNodes>
          <leafValues>
            6.0812222957611084e-01 -1.6205143928527832e-01</leafValues></_>
        <_>
          <internalNodes>
            0 -1 293 1.7549849580973387e-03</internalNodes>
          <leafValues>
            -2.8768649697303772e-01 3.1619006395339966e-01</leafValues></_>
        <_>
          <internalNodes>
            0 -1 318 -1.5211717982310802e-04</internalNodes>
          <leafValues>
            -6.1726826429367065e-01 1.4729419350624084e-01</leafValues></_>
        <_>
          <internalNodes>
            0 -1 90 -1.6077652107924223e-03</internalNodes>
          <leafValues>
            5.5335891246795654e-01 -1.7100647091865540e-01</leafValues></_>
        <_>
          <internalNodes>
            0 -1 39 -1.8600722774863243e-02</internalNodes>
          <leafValues>
            5.9327864646911621e-01 -1.5401153266429901e-01</leafValues></_>
        <_>
          <internalNodes>
            0 -1 375 1.5343602281063795e-03</internalNodes>
          <leafValues>
            -1.8701741099357605e-01 4.6211579442024231e-01</leafValues></_>
        <_>
          <internalNodes>
            0 -1 208 -4.4716157019138336e-02</internalNodes>
          <leafValues>
            -7.3985946178436279e-01 1.2205849587917328e-01</leafValues></_>
        <_>
          <internalNodes>
            0 -1 138 -1.7248656600713730e-02</internalNodes>
          <leafValues>
            -8.8390898704528809e-01 7.6129481196403503e-02</leafValues></_>
        <_>
          <internalNodes>
            0 -1 419 -7.7593531459569931e-03</internalNodes>
          <leafValues>
            5.6302165985107422e-01 -1.7661790549755096e-01</leafValues></_>
        <_>
          <internalNodes>
            0 -1 185 -4.2706201784312725e-03</internalNodes>
          <leafValues>
            -7.1494483947753906e-01 1.4891499280929565e-01</leafValues></_>
        <_>
          <internalNodes>
            0 -1 77 6.7332433536648750e-03</internalNodes>
          <leafValues>
            -1.8518896400928497e-01 5.6575345993041992e-01</leafValues></_>
        <_>
          <internalNodes>
            0 -1 198 7.5725596398115158e-03</internalNodes>
          <leafValues>
            1.2243159860372543e-01 -9.3860256671905518e-01</leafValues></_></weakClassifiers></_>
    <!-- stage 7 -->
    <_>
      <maxWeakCount>18</maxWeakCount>
      <stageThreshold>-1.1734789609909058e+00</stageThreshold>
      <weakClassifiers>
        <_>
          <internalNodes>
            0 -1 224 1.2770934263244271e-03</internalNodes>
          <leafValues>
            3.6415362358093262e-01 -5.7731956243515015e-01</leafValues></_>
        <_>
          <internalNodes>
            0 -1 137 4.5883048325777054e-02</internalNodes>
          <leafValues>
            -3.2701838016510010e-01 3.3103042840957642e-01</leafValues></_>
        <_>
          <internalNodes>
            0 -1 361 4.2297807522118092e-03</internalNodes>
          <leafValues>
            -1.0078912228345871e-01 7.4350452423095703e-01</leafValues></_>
        <_>
          <internalNodes>
            0 -1 372 1.5296963974833488e-03</internalNodes>
          <leafValues>
            -2.7287673950195312e-01 3.3723589777946472e-01</leafValues></_>
        <_>
          <internalNodes>
            0 -1 48 -3.7524193525314331e-02</internalNodes>
          <leafValues>
            6.9664329290390015e-01 -1.5210069715976715e-01</leafValues></_>
        <_>
          <internalNodes>
            0 -1 35 2.3435497656464577e-02</internalNodes>
          <leafValues>
            -1.9124564528465271e-01 6.1329060792922974e-01</leafValues></_>
        <_>
          <internalNodes>
            0 -1 231 -6.8816822022199631e-03</internalNodes>
          <leafValues>
            6.2520128488540649e-01 -1.2862518429756165e-01</leafValues></_>
        <_>
          <internalNodes>
            0 -1 342 -1.3249770272523165e-03</internalNodes>
          <leafValues>
            -7.5239676237106323e-01 1.3778057694435120e-01</leafValues></_>
        <_>
          <internalNodes>
            0 -1 341 -2.7317572385072708e-03</internalNodes>
          <leafValues>
            5.6293094158172607e-01 -1.6706401109695435e-01</leafValues></_>
        <_>
          <internalNodes>
            0 -1 110 -9.3052005395293236e-03</internalNodes>
          <leafValues>
            7.7586144208908081e-01 -1.5531043708324432e-01</leafValues></_>
        <_>
          <internalNodes>
            0 -1 64 1.0165771236643195e-03</internalNodes>
          <leafValues>
            -4.7888648509979248e-01 2.2226449847221375e-01</leafValues></_>
        <_>
          <internalNodes>
            0 -1 179 -1.0417873272672296e-03</internalNodes>
          <leafValues>
            5.6951218843460083e-01 -1.5724682807922363e-01</leafValues></_>
        <_>
          <internalNodes>
            0 -1 176 9.2622137162834406e-04</internalNodes>
          <leafValues>
            -2.6527205109596252e-01 4.2072179913520813e-01</leafValues></_>
        <_>
          <internalNodes>
            0 -1 169 5.3150448948144913e-03</internalNodes>
          <leafValues>
            1.3814152777194977e-01 -7.7688008546829224e-01</leafValues></_>
        <_>
          <internalNodes>
            0 -1 255 -3.8416805909946561e-04</internalNodes>
          <leafValues>
            -6.4042884111404419e-01 1.2588375806808472e-01</leafValues></_>
        <_>
          <internalNodes>
            0 -1 335 -4.1338262963108718e-04</internalNodes>
          <leafValues>
            -6.6060739755630493e-01 1.3304628431797028e-01</leafValues></_>
        <_>
          <internalNodes>
            0 -1 181 1.1227948125451803e-03</internalNodes>
          <leafValues>
            -2.2419509291648865e-01 5.0161254405975342e-01</leafValues></_>
        <_>
          <internalNodes>
            0 -1 104 6.8974174791947007e-04</internalNodes>
          <leafValues>
            -1.6736041009426117e-01 4.8895084857940674e-01</leafValues></_></weakClassifiers></_>
    <!-- stage 8 -->
    <_>
      <maxWeakCount>26</maxWeakCount>
      <stageThreshold>-9.6994411945343018e-01</stageThreshold>
      <weakClassifiers>
        <_>
          <internalNodes>
            0 -1 275 7.6085422188043594e-04</internalNodes>
          <leafValues>
            -1.7695473134517670e-01 4.3626570701599121e-01</leafValues></_>
        <_>
          <internalNodes>
            0 -1 54 1.3533878326416016e-01</internalNodes>
          <leafValues>
            1.1835002899169922e-01 -7.9691940546035767e-01</leafValues></_>
        <_>
          <internalNodes>
            0 -1 81 -9.1562923043966293e-03</internalNodes>
          <leafValues>
            -6.0484600067138672e-01 1.2551526725292206e-01</leafValues></_>
        <_>
          <internalNodes>
            0 -1 276 6.2553718453273177e-04</internalNodes>
          <leafValues>
            -3.0330017209053040e-01 2.7871045470237732e-01</leafValues></_>
        <_>
          <internalNodes>
            0 -1 160 1.5360586345195770e-02</internalNodes>
          <leafValues>
            1.0154987871646881e-01 -8.8007354736328125e-01</leafValues></_>
        <_>
          <internalNodes>
            0 -1 28 1.1120077222585678e-02</internalNodes>
          <leafValues>
            -2.3165856301784515e-01 4.2869764566421509e-01</leafValues></_>
        <_>
          <internalNodes>
            0 -1 119 3.4678084775805473e-03</internalNodes>
          <leafValues>
            -2.0360964536666870e-01 5.1619791984558105e-01</leafValues></_>
        <_>
          <internalNodes>
            0 -1 145 -2.4866741150617599e-02</internalNodes>
          <leafValues>
            -7.4696028232574463e-01 1.2907023727893829e-01</leafValues></_>
        <_>
          <internalNodes>
            0 -1 115 1.7288436647504568e-03</internalNodes>
          <leafValues>
            -1.7214660346508026e-01 4.9503377079963684e-01</leafValues></_>
        <_>
          <internalNodes>
            0 -1 257 1.4056996442377567e-03</internalNodes>
          <leafValues>
            -3.7691804766654968e-01 2.1875171363353729e-01</leafValues></_>
        <_>
          <internalNodes>
            0 -1 186 1.1133044958114624e-02</internalNodes>
          <leafValues>
            9.5059372484683990e-02 -7.9931128025054932e-01</leafValues></_>
        <_>
          <internalNodes>
            0 -1 206 1.6746723558753729e-03</internalNodes>
          <leafValues>
            8.4451705217361450e-02 -7.9087090492248535e-01</leafValues></_>
        <_>
          <internalNodes>
            0 -1 397 9.4162509776651859e-04</internalNodes>
          <leafValues>
            -2.0590408146381378e-01 4.2388576269149780e-01</leafValues></_>
        <_>
          <internalNodes>
            0 -1 191 -9.1356039047241211e-03</internalNodes>
          <leafValues>
            -8.3493459224700928e-01 1.0747188329696655e-01</leafValues></_>
        <_>
          <internalNodes>
            0 -1 407 2.5872602127492428e-03</internalNodes>
          <leafValues>
            -1.4473634958267212e-01 6.5848582983016968e-01</leafValues></_>
        <_>
          <internalNodes>
            0 -1 225 -2.0014613401144743e-03</internalNodes>
          <leafValues>
            -8.5809069871902466e-01 1.1456833779811859e-01</leafValues></_>
        <_>
          <internalNodes>
            0 -1 180 -3.7592204753309488e-03</internalNodes>
          <leafValues>
            5.8132624626159668e-01 -1.6015775501728058e-01</leafValues></_>
        <_>
          <internalNodes>
            0 -1 177 3.5690458025783300e-03</internalNodes>
          <leafValues>
            -3.6617445945739746e-01 2.2361052036285400e-01</leafValues></_>
        <_>
          <internalNodes>
            0 -1 202 -9.5419529825448990e-03</internalNodes>
          <leafValues>
            -6.1046725511550903e-01 1.4671264588832855e-01</leafValues></_>
        <_>
          <internalNodes>
            0 -1 247 1.8106587231159210e-04</internalNodes>
          <leafValues>
            -3.3282434940338135e-01 2.5615540146827698e-01</leafValues></_>
        <_>
          <internalNodes>
            0 -1 136 -4.4713448733091354e-03</internalNodes>
          <leafValues>
            6.5990513563156128e-01 -1.2907399237155914e-01</leafValues></_>
        <_>
          <internalNodes>
            0 -1 30 1.0346941417083144e-03</internalNodes>
          <leafValues>
            1.5364097058773041e-01 -5.8226478099822998e-01</leafValues></_>
        <_>
          <internalNodes>
            0 -1 58 7.4499119073152542e-03</internalNodes>
          <leafValues>
            -1.9255289435386658e-01 4.2781278491020203e-01</leafValues></_>
        <_>
          <internalNodes>
            0 -1 296 -1.0501709766685963e-04</internalNodes>
          <leafValues>
            -5.6696468591690063e-01 1.5654529631137848e-01</leafValues></_>
        <_>
          <internalNodes>
            0 -1 414 4.5834667980670929e-03</internalNodes>
          <leafValues>
            -1.6546443104743958e-01 5.3503668308258057e-01</leafValues></_>
        <_>
          <internalNodes>
            0 -1 416 -7.3678703047335148e-03</internalNodes>
          <leafValues>
            4.6323430538177490e-01 -1.8289893865585327e-01</leafValues></_></weakClassifiers></_>
    <!-- stage 9 -->
    <_>
      <maxWeakCount>23</maxWeakCount>
      <stageThreshold>-1.1328836679458618e+00</stageThreshold>
      <weakClassifiers>
        <_>
          <internalNodes>
            0 -1 305 -3.8663445593556389e-05</internalNodes>
          <leafValues>
            -2.7536231279373169e-01 3.9442232251167297e-01</leafValues></_>
        <_>
          <internalNodes>
            0 -1 118 1.7761706840246916e-03</internalNodes>
          <leafValues>
            -1.4484228193759918e-01 5.5389875173568726e-01</leafValues></_>
        <_>
          <internalNodes>
            0 -1 230 -5.2289167797425762e-05</internalNodes>
          <leafValues>
            -4.6755722165107727e-01 1.7342755198478699e-01</leafValues></_>
        <_>
          <internalNodes>
            0 -1 158 6.6366624087095261e-03</internalNodes>
          <leafValues>
            -1.2851350009441376e-01 7.0942103862762451e-01</leafValues></_>
        <_>
          <internalNodes>
            0 -1 10 1.1046517640352249e-02</internalNodes>
          <leafValues>
            -2.0105096697807312e-01 4.4560608267784119e-01</leafValues></_>
        <_>
          <internalNodes>
            0 -1 207 1.8796577351167798e-03</internalNodes>
          <leafValues>
            -1.5551577508449554e-01 4.9571913480758667e-01</leafValues></_>
        <_>
          <internalNodes>
            0 -1 404 3.5761073231697083e-03</internalNodes>
          <leafValues>
            -1.4843249320983887e-01 5.1614999771118164e-01</leafValues></_>
        <_>
          <internalNodes>
            0 -1 365 4.3915852438658476e-04</internalNodes>
          <leafValues>
            -1.8897518515586853e-01 4.1313228011131287e-01</leafValues></_>
        <_>
          <internalNodes>
            0 -1 278 3.4167643170803785e-03</internalNodes>
          <leafValues>
            9.8083354532718658e-02 -8.6319458484649658e-01</leafValues></_>
        <_>
          <internalNodes>
            0 -1 97 -1.7169968923553824e-03</internalNodes>
          <leafValues>
            4.4593006372451782e-01 -1.6985061764717102e-01</leafValues></_>
        <_>
          <internalNodes>
            0 -1 142 4.1512036696076393e-03</internalNodes>
          <leafValues>
            1.0092660039663315e-01 -7.6215827465057373e-01</leafValues></_>
        <_>
          <internalNodes>
            0 -1 123 -8.2763116806745529e-03</internalNodes>
          <leafValues>
            6.8358355760574341e-01 -1.4030657708644867e-01</leafValues></_>
        <_>
          <internalNodes>
            0 -1 200 1.2030631769448519e-03</internalNodes>
          <leafValues>
            -2.3985712230205536e-01 3.4652686119079590e-01</leafValues></_>
        <_>
          <internalNodes>
            0 -1 49 -1.7779160290956497e-02</internalNodes>
          <leafValues>
            6.2710618972778320e-01 -1.3461408019065857e-01</leafValues></_>
        <_>
          <internalNodes>
            0 -1 65 -1.3490547239780426e-01</internalNodes>
          <leafValues>
            -8.2135748863220215e-01 1.1243499070405960e-01</leafValues></_>
        <_>
          <internalNodes>
            0 -1 415 2.4744253605604172e-02</internalNodes>
          <leafValues>
            -1.8798850476741791e-01 4.9559906125068665e-01</leafValues></_>
        <_>
          <internalNodes>
            0 -1 229 5.4675117135047913e-03</internalNodes>
          <leafValues>
            1.6322727501392365e-01 -6.0404187440872192e-01</leafValues></_>
        <_>
          <internalNodes>
            0 -1 383 4.8103855806402862e-04</internalNodes>
          <leafValues>
            -2.3851650953292847e-01 3.2448920607566833e-01</leafValues></_>
        <_>
          <internalNodes>
            0 -1 353 1.0930767748504877e-03</internalNodes>
          <leafValues>
            -1.3153339922428131e-01 5.1313686370849609e-01</leafValues></_>
        <_>
          <internalNodes>
            0 -1 362 1.1135099921375513e-03</internalNodes>
          <leafValues>
            -2.6049348711967468e-01 2.8725638985633850e-01</leafValues></_>
        <_>
          <internalNodes>
            0 -1 195 6.6510108299553394e-03</internalNodes>
          <leafValues>
            1.1265851557254791e-01 -8.3393341302871704e-01</leafValues></_>
        <_>
          <internalNodes>
            0 -1 264 4.5645466889254749e-04</internalNodes>
          <leafValues>
            -3.4951725602149963e-01 2.3526827991008759e-01</leafValues></_>
        <_>
          <internalNodes>
            0 -1 151 -5.1104649901390076e-03</internalNodes>
          <leafValues>
            -8.5304456949234009e-01 9.0972475707530975e-02</leafValues></_></weakClassifiers></_>
    <!-- stage 10 -->
    <_>
      <maxWeakCount>23</maxWeakCount>
      <stageThreshold>-9.2200040817260742e-01</stageThreshold>
      <weakClassifiers>
        <_>
          <internalNodes>
            0 -1 285 3.6814343184232712e-03</internalNodes>
          <leafValues>
            3.4674063324928284e-01 -6.3291138410568237e-01</leafValues></_>
        <_>
          <internalNodes>
            0 -1 251 3.2204226590692997e-03</internalNodes>
          <leafValues>
            -1.7889514565467834e-01 4.0666931867599487e-01</leafValues></_>
        <_>
          <internalNodes>
            0 -1 267 -1.5498275752179325e-04</internalNodes>
          <leafValues>
            -4.3851223587989807e-01 1.8242558836936951e-01</leafValues></_>
        <_>
          <internalNodes>
            0 -1 50 -1.0831065475940704e-02</internalNodes>
          <leafValues>
            3.8023737072944641e-01 -2.4503590166568756e-01</leafValues></_>
        <_>
          <internalNodes>
            0 -1 245 1.0263447184115648e-03</internalNodes>
          <leafValues>
            9.6404530107975006e-02 -6.9068247079849243e-01</leafValues></_>
        <_>
          <internalNodes>
            0 -1 306 -2.9464114049915224e-05</internalNodes>
          <leafValues>
            -3.9327031373977661e-01 2.0483964681625366e-01</leafValues></_>
        <_>
          <internalNodes>
            0 -1 338 1.3197063235566020e-03</internalNodes>
          <leafValues>
            -1.3327690958976746e-01 5.6095761060714722e-01</leafValues></_>
        <_>
          <internalNodes>
            0 -1 394 3.9723985828459263e-03</internalNodes>
          <leafValues>
            -2.2211574018001556e-01 3.8450908660888672e-01</leafValues></_>
        <_>
          <internalNodes>
            0 -1 422 -1.2369052506983280e-02</internalNodes>
          <leafValues>
            4.8207917809486389e-01 -1.3939270377159119e-01</leafValues></_>
        <_>
          <internalNodes>
            0 -1 187 4.2706122621893883e-03</internalNodes>
          <leafValues>
            1.1265347152948380e-01 -7.4825733900070190e-01</leafValues></_>
        <_>
          <internalNodes>
            0 -1 418 3.0106963589787483e-02</internalNodes>
          <leafValues>
            -1.4423139393329620e-01 5.6864565610885620e-01</leafValues></_>
        <_>
          <internalNodes>
            0 -1 89 1.8479709979146719e-03</internalNodes>
          <leafValues>
            -1.8624103069305420e-01 3.9808994531631470e-01</leafValues></_>
        <_>
          <internalNodes>
            0 -1 211 -9.1573605313897133e-03</internalNodes>
          <leafValues>
            6.8803471326828003e-01 -9.8546892404556274e-02</leafValues></_>
        <_>
          <internalNodes>
            0 -1 387 -2.4886133614927530e-03</internalNodes>
          <leafValues>
            -6.4347314834594727e-01 1.3370837271213531e-01</leafValues></_>
        <_>
          <internalNodes>
            0 -1 203 5.0831353291869164e-03</internalNodes>
          <leafValues>
            1.1553546041250229e-01 -5.7010728120803833e-01</leafValues></_>
        <_>
          <internalNodes>
            0 -1 98 -9.9339429289102554e-03</internalNodes>
          <leafValues>
            6.3408243656158447e-01 -1.2923757731914520e-01</leafValues></_>
        <_>
          <internalNodes>
            0 -1 29 -1.2462270446121693e-02</internalNodes>
          <leafValues>
            4.9698129296302795e-01 -1.2304893136024475e-01</leafValues></_>
        <_>
          <internalNodes>
            0 -1 174 1.2936120619997382e-03</internalNodes>
          <leafValues>
            -1.2405323237180710e-01 5.7137638330459595e-01</leafValues></_>
        <_>
          <internalNodes>
            0 -1 53 4.1928041726350784e-02</internalNodes>
          <leafValues>
            8.3465337753295898e-02 -9.1837525367736816e-01</leafValues></_>
        <_>
          <internalNodes>
            0 -1 159 -6.2169702723622322e-03</internalNodes>
          <leafValues>
            4.8817127943038940e-01 -1.6437289118766785e-01</leafValues></_>
        <_>
          <internalNodes>
            0 -1 329 -1.9576982595026493e-03</internalNodes>
          <leafValues>
            3.8128688931465149e-01 -2.0295333862304688e-01</leafValues></_>
        <_>
          <internalNodes>
            0 -1 9 2.8847269713878632e-03</internalNodes>
          <leafValues>
            -1.5658079087734222e-01 4.9456828832626343e-01</leafValues></_>
        <_>
          <internalNodes>
            0 -1 82 -7.3126172646880150e-03</internalNodes>
          <leafValues>
            5.7058876752853394e-01 -1.2887896597385406e-01</leafValues></_></weakClassifiers></_>
    <!-- stage 11 -->
    <_>
      <maxWeakCount>27</maxWeakCount>
      <stageThreshold>-9.0332621335983276e-01</stageThreshold>
      <weakClassifiers>
        <_>
          <internalNodes>
            0 -1 336 -5.7717872550711036e-04</internalNodes>
          <leafValues>
            -5.3012049198150635e-01 3.4030684828758240e-01</leafValues></_>
        <_>
          <internalNodes>
            0 -1 281 8.3397695561870933e-05</internalNodes>
          <leafValues>
            2.1222053468227386e-01 -4.4588381052017212e-01</leafValues></_>
        <_>
          <internalNodes>
            0 -1 315 -2.3547356249764562e-04</internalNodes>
          <leafValues>
            3.0458179116249084e-01 -2.6700413227081299e-01</leafValues></_>
        <_>
          <internalNodes>
            0 -1 92 2.0793247967958450e-03</internalNodes>
          <leafValues>
            -1.9054879248142242e-01 4.1108199954032898e-01</leafValues></_>
        <_>
          <internalNodes>
            0 -1 328 3.3345869742333889e-03</internalNodes>
          <leafValues>
            -1.6626976430416107e-01 5.5406326055526733e-01</leafValues></_>
        <_>
          <internalNodes>
            0 -1 357 8.0393318785354495e-04</internalNodes>
          <leafValues>
            -1.9214354455471039e-01 4.0988704562187195e-01</leafValues></_>
        <_>
          <internalNodes>
            0 -1 373 4.2343027889728546e-03</internalNodes>
          <leafValues>
            1.6844794154167175e-01 -6.3649237155914307e-01</leafValues></_>
        <_>
          <internalNodes>
            0 -1 326 1.0396583820693195e-04</internalNodes>
          <leafValues>
            1.0518448054790497e-01 -5.4700595140457153e-01</leafValues></_>
        <_>
          <internalNodes>
            0 -1 261 2.2176611237227917e-03</internalNodes>
          <leafValues>
            1.4539983868598938e-01 -5.3835350275039673e-01</leafValues></_>
        <_>
          <internalNodes>
            0 -1 326 -4.7301626182161272e-05</internalNodes>
          <leafValues>
            -4.6246674656867981e-01 1.6181862354278564e-01</leafValues></_>
        <_>
          <internalNodes>
            0 -1 327 -9.7515177913010120e-04</internalNodes>
          <leafValues>
            4.4985878467559814e-01 -1.7504660785198212e-01</leafValues></_>
        <_>
          <internalNodes>
            0 -1 330 1.9031123883905821e-05</internalNodes>
          <leafValues>
            -2.3644012212753296e-01 3.0713948607444763e-01</leafValues></_>
        <_>
          <internalNodes>
            0 -1 343 3.8338790182024240e-04</internalNodes>
          <leafValues>
            -1.9026283919811249e-01 4.1848385334014893e-01</leafValues></_>
        <_>
          <internalNodes>
            0 -1 5 -1.0801766067743301e-02</internalNodes>
          <leafValues>
            4.6204972267150879e-01 -1.4380839467048645e-01</leafValues></_>
        <_>
          <internalNodes>
            0 -1 396 -5.8926768600940704e-02</internalNodes>
          <leafValues>
            5.7063180208206177e-01 -1.1692760139703751e-01</leafValues></_>
        <_>
          <internalNodes>
            0 -1 2 -1.5738612413406372e-01</internalNodes>
          <leafValues>
            6.5749055147171021e-01 -1.0058758407831192e-01</leafValues></_>
        <_>
          <internalNodes>
            0 -1 149 2.0261069294065237e-03</internalNodes>
          <leafValues>
            -1.4762420952320099e-01 4.7116374969482422e-01</leafValues></_>
        <_>
          <internalNodes>
            0 -1 188 6.0481387190520763e-03</internalNodes>
          <leafValues>
            1.1594061553478241e-01 -7.5459265708923340e-01</leafValues></_>
        <_>
          <internalNodes>
            0 -1 163 6.9523777347058058e-04</internalNodes>
          <leafValues>
            -2.0244415104389191e-01 4.2419472336769104e-01</leafValues></_>
        <_>
          <internalNodes>
            0 -1 133 -1.1954000219702721e-02</internalNodes>
          <leafValues>
            -6.2874418497085571e-01 1.3094626367092133e-01</leafValues></_>
        <_>
          <internalNodes>
            0 -1 34 -6.8622161634266376e-03</internalNodes>
          <leafValues>
            -5.4933410882949829e-01 1.1998680233955383e-01</leafValues></_>
        <_>
          <internalNodes>
            0 -1 36 3.1880617141723633e-02</internalNodes>
          <leafValues>
            1.3861642777919769e-01 -5.6296706199645996e-01</leafValues></_>
        <_>
          <internalNodes>
            0 -1 66 2.7324506081640720e-03</internalNodes>
          <leafValues>
            -1.5528476238250732e-01 5.6427919864654541e-01</leafValues></_>
        <_>
          <internalNodes>
            0 -1 120 4.3410480022430420e-02</internalNodes>
          <leafValues>
            -1.3442581892013550e-01 5.1736336946487427e-01</leafValues></_>
        <_>
          <internalNodes>
            0 -1 42 2.0025800913572311e-03</internalNodes>
          <leafValues>
            -1.5637205541133881e-01 4.2679941654205322e-01</leafValues></_>
        <_>
          <internalNodes>
            0 -1 125 5.9560076333582401e-03</internalNodes>
          <leafValues>
            9.0585663914680481e-02 -8.9609688520431519e-01</leafValues></_>
        <_>
          <internalNodes>
            0 -1 38 2.1255202591419220e-03</internalNodes>
          <leafValues>
            -2.0833326876163483e-01 3.3764371275901794e-01</leafValues></_></weakClassifiers></_>
    <!-- stage 12 -->
    <_>
      <maxWeakCount>26</maxWeakCount>
      <stageThreshold>-9.8415929079055786e-01</stageThreshold>
      <weakClassifiers>
        <_>
          <internalNodes>
            0 -1 192 6.8917041644454002e-03</internalNodes>
          <leafValues>
            3.6757153272628784e-01 -4.2616033554077148e-01</leafValues></_>
        <_>
          <internalNodes>
            0 -1 250 7.9885672312229872e-04</internalNodes>
          <leafValues>
            -2.7011007070541382e-01 2.7208036184310913e-01</leafValues></_>
        <_>
          <internalNodes>
            0 -1 154 4.7708395868539810e-03</internalNodes>
          <leafValues>
            -1.3737371563911438e-01 4.3878233432769775e-01</leafValues></_>
        <_>
          <internalNodes>
            0 -1 124 1.2722219340503216e-02</internalNodes>
          <leafValues>
            -1.5897056460380554e-01 5.7057577371597290e-01</leafValues></_>
        <_>
          <internalNodes>
            0 -1 210 3.4870044328272343e-03</internalNodes>
          <leafValues>
            -1.8580897152423859e-01 4.2444968223571777e-01</leafValues></_>
        <_>
          <internalNodes>
            0 -1 72 -1.7380304634571075e-03</internalNodes>
          <leafValues>
            -4.6637570858001709e-01 1.8428513407707214e-01</leafValues></_>
        <_>
          <internalNodes>
            0 -1 178 -3.0394706409424543e-03</internalNodes>
          <leafValues>
            5.5768293142318726e-01 -1.2273123115301132e-01</leafValues></_>
        <_>
          <internalNodes>
            0 -1 161 2.6736212894320488e-03</internalNodes>
          <leafValues>
            -1.7627005279064178e-01 4.4947332143783569e-01</leafValues></_>
        <_>
          <internalNodes>
            0 -1 21 -5.0196878612041473e-02</internalNodes>
          <leafValues>
            6.0683298110961914e-01 -1.2236312776803970e-01</leafValues></_>
        <_>
          <internalNodes>
            0 -1 88 -2.4197879247367382e-03</internalNodes>
          <leafValues>
            -7.2565889358520508e-01 1.1343708634376526e-01</leafValues></_>
        <_>
          <internalNodes>
            0 -1 316 2.0033365581184626e-03</internalNodes>
          <leafValues>
            -1.4542174339294434e-01 5.2217704057693481e-01</leafValues></_>
        <_>
          <internalNodes>
            0 -1 44 -2.6477934792637825e-02</internalNodes>
          <leafValues>
            -7.4582070112228394e-01 1.1767745763063431e-01</leafValues></_>
        <_>
          <internalNodes>
            0 -1 212 -4.0740225813351572e-05</internalNodes>
          <leafValues>
            -4.8470625281333923e-01 1.3066303730010986e-01</leafValues></_>
        <_>
          <internalNodes>
            0 -1 243 3.7653541658073664e-03</internalNodes>
          <leafValues>
            6.5175846219062805e-02 -8.7325680255889893e-01</leafValues></_>
        <_>
          <internalNodes>
            0 -1 220 6.8132032174617052e-04</internalNodes>
          <leafValues>
            -3.1372740864753723e-01 2.0421902835369110e-01</leafValues></_>
        <_>
          <internalNodes>
            0 -1 266 4.7749630175530910e-03</internalNodes>
          <leafValues>
            9.0743415057659149e-02 -7.8452426195144653e-01</leafValues></_>
        <_>
          <internalNodes>
            0 -1 117 3.8768642116338015e-04</internalNodes>
          <leafValues>
            -1.9490851461887360e-01 3.7694746255874634e-01</leafValues></_>
        <_>
          <internalNodes>
            0 -1 184 -4.1684084571897984e-03</internalNodes>
          <leafValues>
            -7.1289545297622681e-01 1.1549738794565201e-01</leafValues></_>
        <_>
          <internalNodes>
            0 -1 57 1.1652469635009766e-02</internalNodes>
          <leafValues>
            -1.3073608279228210e-01 5.6970417499542236e-01</leafValues></_>
        <_>
          <internalNodes>
            0 -1 122 5.0932778976857662e-03</internalNodes>
          <leafValues>
            1.4818803966045380e-01 -5.0923830270767212e-01</leafValues></_>
        <_>
          <internalNodes>
            0 -1 395 1.8423977307975292e-03</internalNodes>
          <leafValues>
            -1.2248692661523819e-01 6.1377495527267456e-01</leafValues></_>
        <_>
          <internalNodes>
            0 -1 55 6.5986113622784615e-03</internalNodes>
          <leafValues>
            -1.1176194995641708e-01 5.7672911882400513e-01</leafValues></_>
        <_>
          <internalNodes>
            0 -1 409 8.4603147115558386e-04</internalNodes>
          <leafValues>
            -1.5787774324417114e-01 4.2950862646102905e-01</leafValues></_>
        <_>
          <internalNodes>
            0 -1 248 -3.7335529923439026e-03</internalNodes>
          <leafValues>
            -7.8254300355911255e-01 9.2268481850624084e-02</leafValues></_>
        <_>
          <internalNodes>
            0 -1 216 1.2162241619080305e-03</internalNodes>
          <leafValues>
            6.5178208053112030e-02 -8.1615692377090454e-01</leafValues></_>
        <_>
          <internalNodes>
            0 -1 183 -8.7241102010011673e-03</internalNodes>
          <leafValues>
            -6.0907411575317383e-01 9.9259160459041595e-02</leafValues></_></weakClassifiers></_>
    <!-- stage 13 -->
    <_>
      <maxWeakCount>26</maxWeakCount>
      <stageThreshold>-7.1804654598236084e-01</stageThreshold>
      <weakClassifiers>
        <_>
          <internalNodes>
            0 -1 298 3.9635025314055383e-04</internalNodes>
          <leafValues>
            -5.2083332091569901e-02 5.2884614467620850e-01</leafValues></_>
        <_>
          <internalNodes>
            0 -1 228 2.9965573921799660e-03</internalNodes>
          <leafValues>
            -1.8146097660064697e-01 3.6827349662780762e-01</leafValues></_>
        <_>
          <internalNodes>
            0 -1 155 -1.1805883608758450e-02</internalNodes>
          <leafValues>
            5.3879612684249878e-01 -1.2406533956527710e-01</leafValues></_>
        <_>
          <internalNodes>
            0 -1 144 -1.1172432452440262e-02</internalNodes>
          <leafValues>
            4.6427279710769653e-01 -1.7082245647907257e-01</leafValues></_>
        <_>
          <internalNodes>
            0 -1 32 -5.1875345408916473e-02</internalNodes>
          <leafValues>
            8.1101930141448975e-01 -5.7831827551126480e-02</leafValues></_>
        <_>
          <internalNodes>
            0 -1 79 1.9344968721270561e-02</internalNodes>
          <leafValues>
            -2.1641476452350616e-01 2.9900911450386047e-01</leafValues></_>
        <_>
          <internalNodes>
            0 -1 354 7.2385207749903202e-04</internalNodes>
          <leafValues>
            -1.6890551149845123e-01 4.4410556554794312e-01</leafValues></_>
        <_>
          <internalNodes>
            0 -1 51 -1.6789350658655167e-02</internalNodes>
          <leafValues>
            5.0867861509323120e-01 -1.2533609569072723e-01</leafValues></_>
        <_>
          <internalNodes>
            0 -1 317 -2.7434807270765305e-03</internalNodes>
          <leafValues>
            5.4186910390853882e-01 -1.1232282966375351e-01</leafValues></_>
        <_>
          <internalNodes>
            0 -1 331 3.6204764910507947e-05</internalNodes>
          <leafValues>
            2.2176423668861389e-01 -3.7458765506744385e-01</leafValues></_>
        <_>
          <internalNodes>
            0 -1 47 1.5492041129618883e-03</internalNodes>
          <leafValues>
            -1.3920664787292480e-01 4.6977993845939636e-01</leafValues></_>
        <_>
          <internalNodes>
            0 -1 325 -3.9586142520420253e-05</internalNodes>
          <leafValues>
            -4.0747472643852234e-01 1.5968568623065948e-01</leafValues></_>
        <_>
          <internalNodes>
            0 -1 139 2.1712206304073334e-02</internalNodes>
          <leafValues>
            1.0436748713254929e-01 -7.4921649694442749e-01</leafValues></_>
        <_>
          <internalNodes>
            0 -1 164 6.3403518870472908e-03</internalNodes>
          <leafValues>
            -1.9520021975040436e-01 3.9209687709808350e-01</leafValues></_>
        <_>
          <internalNodes>
            0 -1 197 -3.9586622733622789e-04</internalNodes>
          <leafValues>
            4.4363024830818176e-01 -1.5308231115341187e-01</leafValues></_>
        <_>
          <internalNodes>
            0 -1 337 1.1972069041803479e-03</internalNodes>
          <leafValues>
            -2.4408701062202454e-01 2.9488179087638855e-01</leafValues></_>
        <_>
          <internalNodes>
            0 -1 346 2.8972993604838848e-03</internalNodes>
          <leafValues>
            -1.8732813000679016e-01 3.9924833178520203e-01</leafValues></_>
        <_>
          <internalNodes>
            0 -1 105 1.1178955435752869e-02</internalNodes>
          <leafValues>
            7.8700415790081024e-02 -9.4002848863601685e-01</leafValues></_>
        <_>
          <internalNodes>
            0 -1 84 2.3829005658626556e-03</internalNodes>
          <leafValues>
            -2.1764753758907318e-01 3.5485494136810303e-01</leafValues></_>
        <_>
          <internalNodes>
            0 -1 348 -1.5922300517559052e-02</internalNodes>
          <leafValues>
            -7.4908196926116943e-01 1.0866197943687439e-01</leafValues></_>
        <_>
          <internalNodes>
            0 -1 101 4.1176704689860344e-03</internalNodes>
          <leafValues>
            -3.7018027901649475e-01 1.8593123555183411e-01</leafValues></_>
        <_>
          <internalNodes>
            0 -1 80 6.8597928620874882e-03</internalNodes>
          <leafValues>
            1.0948564857244492e-01 -6.1989998817443848e-01</leafValues></_>
        <_>
          <internalNodes>
            0 -1 153 2.6437430642545223e-03</internalNodes>
          <leafValues>
            9.4550490379333496e-02 -6.6391789913177490e-01</leafValues></_>
        <_>
          <internalNodes>
            0 -1 413 2.5031375698745251e-03</internalNodes>
          <leafValues>
            -1.2658055126667023e-01 5.6822139024734497e-01</leafValues></_>
        <_>
          <internalNodes>
            0 -1 121 4.0076421573758125e-03</internalNodes>
          <leafValues>
            1.0995027422904968e-01 -7.0907437801361084e-01</leafValues></_>
        <_>
          <internalNodes>
            0 -1 111 -1.5202905051410198e-02</internalNodes>
          <leafValues>
            6.5335315465927124e-01 -1.2232732027769089e-01</leafValues></_></weakClassifiers></_>
    <!-- stage 14 -->
    <_>
      <maxWeakCount>29</maxWeakCount>
      <stageThreshold>-1.0396282672882080e+00</stageThreshold>
      <weakClassifiers>
        <_>
          <internalNodes>
            0 -1 213 8.8584776967763901e-03</internalNodes>
          <leafValues>
            3.7146893143653870e-01 -6.8478262424468994e-01</leafValues></_>
        <_>
          <internalNodes>
            0 -1 237 -1.4612502418458462e-03</internalNodes>
          <leafValues>
            3.3004754781723022e-01 -2.2917065024375916e-01</leafValues></_>
        <_>
          <internalNodes>
            0 -1 352 -2.5941764935851097e-02</internalNodes>
          <leafValues>
            4.1469156742095947e-01 -1.5259036421775818e-01</leafValues></_>
        <_>
          <internalNodes>
            0 -1 193 2.7607199735939503e-03</internalNodes>
          <leafValues>
            1.2367913872003555e-01 -4.6085119247436523e-01</leafValues></_>
        <_>
          <internalNodes>
            0 -1 382 -5.7751731947064400e-03</internalNodes>
          <leafValues>
            5.7949638366699219e-01 -1.4539234340190887e-01</leafValues></_>
        <_>
          <internalNodes>
            0 -1 385 6.7479198332875967e-04</internalNodes>
          <leafValues>
            -1.9903910160064697e-01 3.5468706488609314e-01</leafValues></_>
        <_>
          <internalNodes>
            0 -1 156 -2.2129991557449102e-03</internalNodes>
          <leafValues>
            -7.7159053087234497e-01 1.1035735160112381e-01</leafValues></_>
        <_>
          <internalNodes>
            0 -1 292 -5.0616003572940826e-03</internalNodes>
          <leafValues>
            -7.8140074014663696e-01 7.4076406657695770e-02</leafValues></_>
        <_>
          <internalNodes>
            0 -1 129 -3.0353620648384094e-02</internalNodes>
          <leafValues>
            -7.2802239656448364e-01 8.3677127957344055e-02</leafValues></_>
        <_>
          <internalNodes>
            0 -1 374 4.0875896811485291e-03</internalNodes>
          <leafValues>
            -1.8877685070037842e-01 3.4944292902946472e-01</leafValues></_>
        <_>
          <internalNodes>
            0 -1 380 3.1682651024311781e-04</internalNodes>
          <leafValues>
            -2.3387683928012848e-01 2.9545438289642334e-01</leafValues></_>
        <_>
          <internalNodes>
            0 -1 410 -1.1296479031443596e-02</internalNodes>
          <leafValues>
            -7.8316384553909302e-01 1.0174555331468582e-01</leafValues></_>
        <_>
          <internalNodes>
            0 -1 324 -6.5564621763769537e-05</internalNodes>
          <leafValues>
            -5.0815683603286743e-01 1.1547684669494629e-01</leafValues></_>
        <_>
          <internalNodes>
            0 -1 128 2.1065350156277418e-03</internalNodes>
          <leafValues>
            -1.7357011139392853e-01 3.8365769386291504e-01</leafValues></_>
        <_>
          <internalNodes>
            0 -1 147 -5.9307771734893322e-03</internalNodes>
          <leafValues>
            5.7597839832305908e-01 -1.2835477292537689e-01</leafValues></_>
        <_>
          <internalNodes>
            0 -1 170 -2.8114453889429569e-03</internalNodes>
          <leafValues>
            5.2707773447036743e-01 -1.2954831123352051e-01</leafValues></_>
        <_>
          <internalNodes>
            0 -1 209 3.2219541026279330e-04</internalNodes>
          <leafValues>
            -2.0711183547973633e-01 3.1759938597679138e-01</leafValues></_>
        <_>
          <internalNodes>
            0 -1 308 1.9532865844666958e-03</internalNodes>
          <leafValues>
            1.2101641297340393e-01 -6.2821269035339355e-01</leafValues></_>
        <_>
          <internalNodes>
            0 -1 148 -2.6186900213360786e-03</internalNodes>
          <leafValues>
            6.0793334245681763e-01 -1.1685492843389511e-01</leafValues></_>
        <_>
          <internalNodes>
            0 -1 277 -2.2799780126661062e-03</internalNodes>
          <leafValues>
            -4.3671095371246338e-01 1.8651781976222992e-01</leafValues></_>
        <_>
          <internalNodes>
            0 -1 239 2.0674528786912560e-04</internalNodes>
          <leafValues>
            -2.7208620309829712e-01 2.8934127092361450e-01</leafValues></_>
        <_>
          <internalNodes>
            0 -1 300 7.2810158599168062e-04</internalNodes>
          <leafValues>
            -2.2101613879203796e-01 3.3777838945388794e-01</leafValues></_>
        <_>
          <internalNodes>
            0 -1 345 4.3137033935636282e-04</internalNodes>
          <leafValues>
            -1.6163115203380585e-01 4.6228048205375671e-01</leafValues></_>
        <_>
          <internalNodes>
            0 -1 131 -4.2491345666348934e-03</internalNodes>
          <leafValues>
            -7.4146801233291626e-01 1.0175235569477081e-01</leafValues></_>
        <_>
          <internalNodes>
            0 -1 24 -4.7602258622646332e-02</internalNodes>
          <leafValues>
            4.8639318346977234e-01 -1.7144489288330078e-01</leafValues></_>
        <_>
          <internalNodes>
            0 -1 62 2.9581028968095779e-02</internalNodes>
          <leafValues>
            -1.2556478381156921e-01 5.1546794176101685e-01</leafValues></_>
        <_>
          <internalNodes>
            0 -1 194 3.4392951056361198e-04</internalNodes>
          <leafValues>
            -3.0413830280303955e-01 2.5266295671463013e-01</leafValues></_>
        <_>
          <internalNodes>
            0 -1 116 -1.6310939565300941e-02</internalNodes>
          <leafValues>
            -7.8977733850479126e-01 8.8431462645530701e-02</leafValues></_>
        <_>
          <internalNodes>
            0 -1 241 4.2387918801978230e-04</internalNodes>
          <leafValues>
            -2.4112966656684875e-01 3.1914275884628296e-01</leafValues></_></weakClassifiers></_>
    <!-- stage 15 -->
    <_>
      <maxWeakCount>26</maxWeakCount>
      <stageThreshold>-8.9709115028381348e-01</stageThreshold>
      <weakClassifiers>
        <_>
          <internalNodes>
            0 -1 272 8.6924396455287933e-03</internalNodes>
          <leafValues>
            3.2040134072303772e-01 -7.5238096714019775e-01</leafValues></_>
        <_>
          <internalNodes>
            0 -1 299 1.7854574252851307e-04</internalNodes>
          <leafValues>
            -3.6379951238632202e-01 2.3630169034004211e-01</leafValues></_>
        <_>
          <internalNodes>
            0 -1 288 -1.5738976653665304e-03</internalNodes>
          <leafValues>
            -6.8978559970855713e-01 6.5583549439907074e-02</leafValues></_>
        <_>
          <internalNodes>
            0 -1 222 6.4375950023531914e-03</internalNodes>
          <leafValues>
            1.0540586709976196e-01 -6.9922810792922974e-01</leafValues></_>
        <_>
          <internalNodes>
            0 -1 393 1.1276254663243890e-03</internalNodes>
          <leafValues>
            -1.9965820014476776e-01 4.0898481011390686e-01</leafValues></_>
        <_>
          <internalNodes>
            0 -1 168 3.1605660915374756e-03</internalNodes>
          <leafValues>
            -2.0946882665157318e-01 3.2142636179924011e-01</leafValues></_>
        <_>
          <internalNodes>
            0 -1 152 -3.4930121619254351e-03</internalNodes>
          <leafValues>
            4.6665483713150024e-01 -1.7917373776435852e-01</leafValues></_>
        <_>
          <internalNodes>
            0 -1 325 5.7979908888228238e-05</internalNodes>
          <leafValues>
            1.5093030035495758e-01 -4.3163502216339111e-01</leafValues></_>
        <_>
          <internalNodes>
            0 -1 405 1.5339640667662024e-03</internalNodes>
          <leafValues>
            -2.0636074244976044e-01 3.6334085464477539e-01</leafValues></_>
        <_>
          <internalNodes>
            0 -1 22 -1.2377714738249779e-02</internalNodes>
          <leafValues>
            5.1684844493865967e-01 -1.1609681695699692e-01</leafValues></_>
        <_>
          <internalNodes>
            0 -1 56 -5.3756535053253174e-02</internalNodes>
          <leafValues>
            -5.8311951160430908e-01 1.1694411933422089e-01</leafValues></_>
        <_>
          <internalNodes>
            0 -1 26 1.5797728300094604e-01</internalNodes>
          <leafValues>
            6.7427411675453186e-02 -7.0128244161605835e-01</leafValues></_>
        <_>
          <internalNodes>
            0 -1 289 -1.9442172197159380e-04</internalNodes>
          <leafValues>
            -4.7540333867073059e-01 1.1655712127685547e-01</leafValues></_>
        <_>
          <internalNodes>
            0 -1 283 -5.9345648624002934e-03</internalNodes>
          <leafValues>
            -7.5244069099426270e-01 7.9469345510005951e-02</leafValues></_>
        <_>
          <internalNodes>
            0 -1 16 -1.3403948396444321e-03</internalNodes>
          <leafValues>
            -4.7163769602775574e-01 1.3668066263198853e-01</leafValues></_>
        <_>
          <internalNodes>
            0 -1 94 -1.9073904259130359e-03</internalNodes>
          <leafValues>
            4.4299808144569397e-01 -1.7129842936992645e-01</leafValues></_>
        <_>
          <internalNodes>
            0 -1 95 1.0215677320957184e-03</internalNodes>
          <leafValues>
            -1.2600797414779663e-01 4.5978963375091553e-01</leafValues></_>
        <_>
          <internalNodes>
            0 -1 412 4.7030374407768250e-03</internalNodes>
          <leafValues>
            -1.3417591154575348e-01 5.0380367040634155e-01</leafValues></_>
        <_>
          <internalNodes>
            0 -1 6 -4.2165428400039673e-02</internalNodes>
          <leafValues>
            5.8142727613449097e-01 -1.1533838510513306e-01</leafValues></_>
        <_>
          <internalNodes>
            0 -1 263 6.1272375751286745e-04</internalNodes>
          <leafValues>
            -3.1233468651771545e-01 2.1859379112720490e-01</leafValues></_>
        <_>
          <internalNodes>
            0 -1 339 -9.0554275084286928e-04</internalNodes>
          <leafValues>
            4.6806132793426514e-01 -1.4892722666263580e-01</leafValues></_>
        <_>
          <internalNodes>
            0 -1 196 -4.5305686071515083e-03</internalNodes>
          <leafValues>
            -7.7236711978912354e-01 1.0203210264444351e-01</leafValues></_>
        <_>
          <internalNodes>
            0 -1 295 -4.9002170271705836e-05</internalNodes>
          <leafValues>
            -3.5873487591743469e-01 1.7125633358955383e-01</leafValues></_>
        <_>
          <internalNodes>
            0 -1 307 -4.6556559391319752e-04</internalNodes>
          <leafValues>
            1.3103413581848145e-01 -4.7964495420455933e-01</leafValues></_>
        <_>
          <internalNodes>
            0 -1 340 -4.8042892012745142e-04</internalNodes>
          <leafValues>
            5.5432885885238647e-01 -1.2623167037963867e-01</leafValues></_>
        <_>
          <internalNodes>
            0 -1 301 -7.0603587664663792e-04</internalNodes>
          <leafValues>
            -9.2324072122573853e-01 7.9683586955070496e-02</leafValues></_></weakClassifiers></_>
    <!-- stage 16 -->
    <_>
      <maxWeakCount>26</maxWeakCount>
      <stageThreshold>-8.4053629636764526e-01</stageThreshold>
      <weakClassifiers>
        <_>
          <internalNodes>
            0 -1 278 -7.8423414379358292e-05</internalNodes>
          <leafValues>
            -2.8358209133148193e-01 3.9130434393882751e-01</leafValues></_>
        <_>
          <internalNodes>
            0 -1 166 1.2952426914125681e-03</internalNodes>
          <leafValues>
            -1.1822867393493652e-01 4.5733165740966797e-01</leafValues></_>
        <_>
          <internalNodes>
            0 -1 310 -4.1819646867224947e-05</internalNodes>
          <leafValues>
            -4.2686733603477478e-01 1.4419311285018921e-01</leafValues></_>
        <_>
          <internalNodes>
            0 -1 219 -3.8959326047915965e-05</internalNodes>
          <leafValues>
            -3.0451378226280212e-01 1.8525150418281555e-01</leafValues></_>
        <_>
          <internalNodes>
            0 -1 141 -5.9227482415735722e-04</internalNodes>
          <leafValues>
            4.8664233088493347e-01 -1.6503903269767761e-01</leafValues></_>
        <_>
          <internalNodes>
            0 -1 112 -1.0888516902923584e-02</internalNodes>
          <leafValues>
            -7.5359690189361572e-01 1.1084627360105515e-01</leafValues></_>
        <_>
          <internalNodes>
            0 -1 268 4.1362113552168012e-04</internalNodes>
          <leafValues>
            -2.5589227676391602e-01 2.5854983925819397e-01</leafValues></_>
        <_>
          <internalNodes>
            0 -1 332 -4.5201095053926110e-04</internalNodes>
          <leafValues>
            5.0959622859954834e-01 -1.1863522231578827e-01</leafValues></_>
        <_>
          <internalNodes>
            0 -1 369 7.3037680704146624e-04</internalNodes>
          <leafValues>
            -1.8409642577171326e-01 3.2299417257308960e-01</leafValues></_>
        <_>
          <internalNodes>
            0 -1 379 7.0745474658906460e-04</internalNodes>
          <leafValues>
            -1.5530028939247131e-01 3.5768291354179382e-01</leafValues></_>
        <_>
          <internalNodes>
            0 -1 398 3.5435080062597990e-03</internalNodes>
          <leafValues>
            -1.5901310741901398e-01 4.1244983673095703e-01</leafValues></_>
        <_>
          <internalNodes>
            0 -1 312 4.6637253835797310e-03</internalNodes>
          <leafValues>
            1.4605812728404999e-01 -4.3610045313835144e-01</leafValues></_>
        <_>
          <internalNodes>
            0 -1 403 8.9738483075052500e-04</internalNodes>
          <leafValues>
            -1.6217666864395142e-01 4.3197047710418701e-01</leafValues></_>
        <_>
          <internalNodes>
            0 -1 189 -1.9011832773685455e-03</internalNodes>
          <leafValues>
            -4.7905457019805908e-01 1.5195274353027344e-01</leafValues></_>
        <_>
          <internalNodes>
            0 -1 14 1.1694783344864845e-02</internalNodes>
          <leafValues>
            1.1517073214054108e-01 -4.7506782412528992e-01</leafValues></_>
        <_>
          <internalNodes>
            0 -1 236 -9.3501675873994827e-03</internalNodes>
          <leafValues>
            -6.5758806467056274e-01 9.1124191880226135e-02</leafValues></_>
        <_>
          <internalNodes>
            0 -1 254 -1.3661726843565702e-03</internalNodes>
          <leafValues>
            1.3298845291137695e-01 -5.2846956253051758e-01</leafValues></_>
        <_>
          <internalNodes>
            0 -1 130 2.9771314002573490e-03</internalNodes>
          <leafValues>
            9.1229707002639771e-02 -6.9181519746780396e-01</leafValues></_>
        <_>
          <internalNodes>
            0 -1 102 5.6935631437227130e-04</internalNodes>
          <leafValues>
            -1.5743173658847809e-01 4.0468499064445496e-01</leafValues></_>
        <_>
          <internalNodes>
            0 -1 321 -1.1618285498116165e-04</internalNodes>
          <leafValues>
            2.4283547699451447e-01 -2.7437141537666321e-01</leafValues></_>
        <_>
          <internalNodes>
            0 -1 291 -1.0246868478134274e-03</internalNodes>
          <leafValues>
            -4.3234893679618835e-01 1.4615136384963989e-01</leafValues></_>
        <_>
          <internalNodes>
            0 -1 8 4.5158918946981430e-02</internalNodes>
          <leafValues>
            -1.4203755557537079e-01 4.6922215819358826e-01</leafValues></_>
        <_>
          <internalNodes>
            0 -1 411 1.3398676179349422e-02</internalNodes>
          <leafValues>
            -1.6464066505432129e-01 4.5546421408653259e-01</leafValues></_>
        <_>
          <internalNodes>
            0 -1 240 3.6571233067661524e-04</internalNodes>
          <leafValues>
            -3.0470734834671021e-01 2.5431546568870544e-01</leafValues></_>
        <_>
          <internalNodes>
            0 -1 61 -7.5752772390842438e-03</internalNodes>
          <leafValues>
            4.7080570459365845e-01 -1.4580711722373962e-01</leafValues></_>
        <_>
          <internalNodes>
            0 -1 106 -1.6538240015506744e-02</internalNodes>
          <leafValues>
            -5.3513300418853760e-01 1.3467974960803986e-01</leafValues></_></weakClassifiers></_>
    <!-- stage 17 -->
    <_>
      <maxWeakCount>28</maxWeakCount>
      <stageThreshold>-1.0441801548004150e+00</stageThreshold>
      <weakClassifiers>
        <_>
          <internalNodes>
            0 -1 232 -1.1295022442936897e-02</internalNodes>
          <leafValues>
            -6.9343066215515137e-01 3.3834585547447205e-01</leafValues></_>
        <_>
          <internalNodes>
            0 -1 270 6.0446308925747871e-03</internalNodes>
          <leafValues>
            -1.8482464551925659e-01 3.7890186905860901e-01</leafValues></_>
        <_>
          <internalNodes>
            0 -1 286 3.1844631303101778e-04</internalNodes>
          <leafValues>
            -2.4448201060295105e-01 2.8235021233558655e-01</leafValues></_>
        <_>
          <internalNodes>
            0 -1 46 8.4453169256448746e-03</internalNodes>
          <leafValues>
            -1.7028056085109711e-01 3.9207723736763000e-01</leafValues></_>
        <_>
          <internalNodes>
            0 -1 172 8.5554551333189011e-03</internalNodes>
          <leafValues>
            -1.4509071409702301e-01 5.3731006383895874e-01</leafValues></_>
        <_>
          <internalNodes>
            0 -1 132 -4.2421659454703331e-03</internalNodes>
          <leafValues>
            -8.1136316061019897e-01 1.0654559731483459e-01</leafValues></_>
        <_>
          <internalNodes>
            0 -1 25 -1.4684059657156467e-02</internalNodes>
          <leafValues>
            4.4470632076263428e-01 -1.5240310132503510e-01</leafValues></_>
        <_>
          <internalNodes>
            0 -1 347 1.2148995883762836e-03</internalNodes>
          <leafValues>
            -1.7614734172821045e-01 3.6868017911911011e-01</leafValues></_>
        <_>
          <internalNodes>
            0 -1 360 1.7313817515969276e-02</internalNodes>
          <leafValues>
            7.9194799065589905e-02 -8.7305676937103271e-01</leafValues></_>
        <_>
          <internalNodes>
            0 -1 260 4.2984178289771080e-03</internalNodes>
          <leafValues>
            1.1891730129718781e-01 -5.2820891141891479e-01</leafValues></_>
        <_>
          <internalNodes>
            0 -1 71 1.0193282505497336e-03</internalNodes>
          <leafValues>
            -1.6516156494617462e-01 4.1820123791694641e-01</leafValues></_>
        <_>
          <internalNodes>
            0 -1 4 -2.5692087365314364e-04</internalNodes>
          <leafValues>
            -5.4394912719726562e-01 1.2443931400775909e-01</leafValues></_>
        <_>
          <internalNodes>
            0 -1 150 -1.8517230637371540e-03</internalNodes>
          <leafValues>
            3.2946595549583435e-01 -2.0982412993907928e-01</leafValues></_>
        <_>
          <internalNodes>
            0 -1 76 -1.5236972831189632e-03</internalNodes>
          <leafValues>
            4.8808658123016357e-01 -1.2798006832599640e-01</leafValues></_>
        <_>
          <internalNodes>
            0 -1 304 -1.7555398517288268e-04</internalNodes>
          <leafValues>
            -6.9254904985427856e-01 1.0636433213949203e-01</leafValues></_>
        <_>
          <internalNodes>
            0 -1 297 5.4067240853328258e-05</internalNodes>
          <leafValues>
            -3.2851800322532654e-01 2.0325611531734467e-01</leafValues></_>
        <_>
          <internalNodes>
            0 -1 320 -9.7188784275203943e-04</internalNodes>
          <leafValues>
            2.5561329722404480e-01 -2.8429728746414185e-01</leafValues></_>
        <_>
          <internalNodes>
            0 -1 18 -1.3186009600758553e-03</internalNodes>
          <leafValues>
            -5.8389651775360107e-01 1.2774191796779633e-01</leafValues></_>
        <_>
          <internalNodes>
            0 -1 0 -5.3732628002762794e-03</internalNodes>
          <leafValues>
            5.2086633443832397e-01 -1.4032065868377686e-01</leafValues></_>
        <_>
          <internalNodes>
            0 -1 146 -1.4636990381404757e-03</internalNodes>
          <leafValues>
            4.7235271334648132e-01 -1.2123768776655197e-01</leafValues></_>
        <_>
          <internalNodes>
            0 -1 173 -4.9901352031156421e-04</internalNodes>
          <leafValues>
            3.6986780166625977e-01 -2.1190078556537628e-01</leafValues></_>
        <_>
          <internalNodes>
            0 -1 201 3.2641009893268347e-03</internalNodes>
          <leafValues>
            -2.6714217662811279e-01 2.7910041809082031e-01</leafValues></_>
        <_>
          <internalNodes>
            0 -1 215 8.7046169210225344e-04</internalNodes>
          <leafValues>
            -2.6570031046867371e-01 2.4954886734485626e-01</leafValues></_>
        <_>
          <internalNodes>
            0 -1 333 8.8208174565806985e-04</internalNodes>
          <leafValues>
            1.7487943172454834e-01 -4.4219571352005005e-01</leafValues></_>
        <_>
          <internalNodes>
            0 -1 417 7.8787645325064659e-03</internalNodes>
          <leafValues>
            -1.1782612651586533e-01 6.5487301349639893e-01</leafValues></_>
        <_>
          <internalNodes>
            0 -1 1 1.4066341100260615e-04</internalNodes>
          <leafValues>
            1.6476073861122131e-01 -4.7477832436561584e-01</leafValues></_>
        <_>
          <internalNodes>
            0 -1 68 1.1539400555193424e-02</internalNodes>
          <leafValues>
            -1.3542109727859497e-01 5.0944340229034424e-01</leafValues></_>
        <_>
          <internalNodes>
            0 -1 323 1.6918405890464783e-02</internalNodes>
          <leafValues>
            1.2515835464000702e-01 -6.0227644443511963e-01</leafValues></_></weakClassifiers></_>
    <!-- stage 18 -->
    <_>
      <maxWeakCount>27</maxWeakCount>
      <stageThreshold>-8.5965114831924438e-01</stageThreshold>
      <weakClassifiers>
        <_>
          <internalNodes>
            0 -1 103 3.7686847150325775e-02</internalNodes>
          <leafValues>
            3.2510289549827576e-01 -5.2112674713134766e-01</leafValues></_>
        <_>
          <internalNodes>
            0 -1 349 4.1399626061320305e-03</internalNodes>
          <leafValues>
            -4.4714558869600296e-02 7.4663835763931274e-01</leafValues></_>
        <_>
          <internalNodes>
            0 -1 253 4.5066028833389282e-03</internalNodes>
          <leafValues>
            -2.7269408106803894e-01 2.9737421870231628e-01</leafValues></_>
        <_>
          <internalNodes>
            0 -1 204 8.3746854215860367e-03</internalNodes>
          <leafValues>
            -1.0081535577774048e-01 4.2208117246627808e-01</leafValues></_>
        <_>
          <internalNodes>
            0 -1 287 1.1657056165859103e-03</internalNodes>
          <leafValues>
            8.5137560963630676e-02 -5.4063487052917480e-01</leafValues></_>
        <_>
          <internalNodes>
            0 -1 60 4.0829144418239594e-02</internalNodes>
          <leafValues>
            5.8928959071636200e-02 -8.8213509321212769e-01</leafValues></_>
        <_>
          <internalNodes>
            0 -1 249 -3.4223108086735010e-03</internalNodes>
          <leafValues>
            2.1997524797916412e-01 -2.6153790950775146e-01</leafValues></_>
        <_>
          <internalNodes>
            0 -1 386 2.5270688347518444e-03</internalNodes>
          <leafValues>
            -1.5757234394550323e-01 4.2522066831588745e-01</leafValues></_>
        <_>
          <internalNodes>
            0 -1 371 2.8060269542038441e-03</internalNodes>
          <leafValues>
            -1.9554679095745087e-01 2.9526409506797791e-01</leafValues></_>
        <_>
          <internalNodes>
            0 -1 13 -2.5869354140013456e-03</internalNodes>
          <leafValues>
            -5.6738281250000000e-01 9.7836561501026154e-02</leafValues></_>
        <_>
          <internalNodes>
            0 -1 363 -5.4487092711497098e-05</internalNodes>
          <leafValues>
            2.8507828712463379e-01 -1.8782834708690643e-01</leafValues></_>
        <_>
          <internalNodes>
            0 -1 359 -3.9246247615665197e-04</internalNodes>
          <leafValues>
            5.2557545900344849e-01 -1.1478272080421448e-01</leafValues></_>
        <_>
          <internalNodes>
            0 -1 99 -5.5780108086764812e-03</internalNodes>
          <leafValues>
            -7.3943102359771729e-01 8.9124940335750580e-02</leafValues></_>
        <_>
          <internalNodes>
            0 -1 78 -1.1889845132827759e-02</internalNodes>
          <leafValues>
            -7.4460214376449585e-01 6.5102756023406982e-02</leafValues></_>
        <_>
          <internalNodes>
            0 -1 420 -3.7248921580612659e-04</internalNodes>
          <leafValues>
            3.1739494204521179e-01 -2.0714876055717468e-01</leafValues></_>
        <_>
          <internalNodes>
            0 -1 234 2.6680277660489082e-03</internalNodes>
          <leafValues>
            -2.2869506478309631e-01 2.6439198851585388e-01</leafValues></_>
        <_>
          <internalNodes>
            0 -1 252 4.0025929920375347e-03</internalNodes>
          <leafValues>
            -1.1553407460451126e-01 5.1853042840957642e-01</leafValues></_>
        <_>
          <internalNodes>
            0 -1 235 2.6166180614382029e-03</internalNodes>
          <leafValues>
            -2.8466644883155823e-01 2.2926886379718781e-01</leafValues></_>
        <_>
          <internalNodes>
            0 -1 319 1.0245761950500309e-04</internalNodes>
          <leafValues>
            1.1160382628440857e-01 -5.8103573322296143e-01</leafValues></_>
        <_>
          <internalNodes>
            0 -1 87 -7.4069425463676453e-03</internalNodes>
          <leafValues>
            4.7174069285392761e-01 -1.3259986042976379e-01</leafValues></_>
        <_>
          <internalNodes>
            0 -1 40 -1.3816864229738712e-03</internalNodes>
          <leafValues>
            4.1602033376693726e-01 -1.6021177172660828e-01</leafValues></_>
        <_>
          <internalNodes>
            0 -1 52 4.2889341711997986e-03</internalNodes>
          <leafValues>
            -1.2232246249914169e-01 4.8829361796379089e-01</leafValues></_>
        <_>
          <internalNodes>
            0 -1 41 8.5583124309778214e-03</internalNodes>
          <leafValues>
            -2.4106760323047638e-01 2.5299835205078125e-01</leafValues></_>
        <_>
          <internalNodes>
            0 -1 400 2.5055587757378817e-03</internalNodes>
          <leafValues>
            -1.5033292770385742e-01 3.8201931118965149e-01</leafValues></_>
        <_>
          <internalNodes>
            0 -1 399 5.0300508737564087e-02</internalNodes>
          <leafValues>
            -1.2555728852748871e-01 4.8640269041061401e-01</leafValues></_>
        <_>
          <internalNodes>
            0 -1 402 -1.2227917090058327e-02</internalNodes>
          <leafValues>
            4.8536542057991028e-01 -1.2457732856273651e-01</leafValues></_>
        <_>
          <internalNodes>
            0 -1 390 4.6467343345284462e-03</internalNodes>
          <leafValues>
            -1.1472189426422119e-01 5.2515953779220581e-01</leafValues></_></weakClassifiers></_>
    <!-- stage 19 -->
    <_>
      <maxWeakCount>30</maxWeakCount>
      <stageThreshold>-9.0573489665985107e-01</stageThreshold>
      <weakClassifiers>
        <_>
          <internalNodes>
            0 -1 280 -7.0959191361907870e-05</internalNodes>
          <leafValues>
            -2.5714287161827087e-01 3.7431907653808594e-01</leafValues></_>
        <_>
          <internalNodes>
            0 -1 313 3.5651342477649450e-04</internalNodes>
          <leafValues>
            -1.9331890344619751e-01 3.4597572684288025e-01</leafValues></_>
        <_>
          <internalNodes>
            0 -1 218 -1.4835899695754051e-02</internalNodes>
          <leafValues>
            -5.8829671144485474e-01 9.4927288591861725e-02</leafValues></_>
        <_>
          <internalNodes>
            0 -1 59 4.0673445910215378e-02</internalNodes>
          <leafValues>
            -1.0057231783866882e-01 6.1077404022216797e-01</leafValues></_>
        <_>
          <internalNodes>
            0 -1 304 7.4983065132983029e-05</internalNodes>
          <leafValues>
            1.2216108292341232e-01 -4.2535433173179626e-01</leafValues></_>
        <_>
          <internalNodes>
            0 -1 109 2.3504942655563354e-03</internalNodes>
          <leafValues>
            -1.0072425007820129e-01 5.1316243410110474e-01</leafValues></_>
        <_>
          <internalNodes>
            0 -1 389 5.6350434897467494e-04</internalNodes>
          <leafValues>
            -1.4926508069038391e-01 3.7935820221900940e-01</leafValues></_>
        <_>
          <internalNodes>
            0 -1 11 2.3705787956714630e-02</internalNodes>
          <leafValues>
            -1.2374289333820343e-01 5.1123726367950439e-01</leafValues></_>
        <_>
          <internalNodes>
            0 -1 134 9.6432417631149292e-03</internalNodes>
          <leafValues>
            -1.3174770772457123e-01 3.8309302926063538e-01</leafValues></_>
        <_>
          <internalNodes>
            0 -1 190 3.8622088730335236e-02</internalNodes>
          <leafValues>
            7.0817440748214722e-02 -7.9529106616973877e-01</leafValues></_>
        <_>
          <internalNodes>
            0 -1 388 -1.2396944221109152e-03</internalNodes>
          <leafValues>
            5.0595933198928833e-01 -1.1326421052217484e-01</leafValues></_>
        <_>
          <internalNodes>
            0 -1 377 8.1207323819398880e-04</internalNodes>
          <leafValues>
            -1.7792665958404541e-01 3.3952239155769348e-01</leafValues></_>
        <_>
          <internalNodes>
            0 -1 100 -5.2728801965713501e-03</internalNodes>
          <leafValues>
            -8.1974619626998901e-01 7.4212290346622467e-02</leafValues></_>
        <_>
          <internalNodes>
            0 -1 294 -2.0853648311458528e-04</internalNodes>
          <leafValues>
            -3.9669999480247498e-01 1.3931012153625488e-01</leafValues></_>
        <_>
          <internalNodes>
            0 -1 7 -4.1335705667734146e-02</internalNodes>
          <leafValues>
            5.5215072631835938e-01 -1.1368301510810852e-01</leafValues></_>
        <_>
          <internalNodes>
            0 -1 351 3.9085716707631946e-04</internalNodes>
          <leafValues>
            -1.0825791209936142e-01 4.9690288305282593e-01</leafValues></_>
        <_>
          <internalNodes>
            0 -1 214 3.4361321013420820e-04</internalNodes>
          <leafValues>
            -1.6649092733860016e-01 3.4970572590827942e-01</leafValues></_>
        <_>
          <internalNodes>
            0 -1 421 1.3576721772551537e-02</internalNodes>
          <leafValues>
            -1.4703401923179626e-01 4.1908121109008789e-01</leafValues></_>
        <_>
          <internalNodes>
            0 -1 157 -2.5794552639126778e-03</internalNodes>
          <leafValues>
            -5.9718877077102661e-01 1.0468929260969162e-01</leafValues></_>
        <_>
          <internalNodes>
            0 -1 17 3.6407671868801117e-03</internalNodes>
          <leafValues>
            8.0099649727344513e-02 -7.0275288820266724e-01</leafValues></_>
        <_>
          <internalNodes>
            0 -1 167 -1.0759006254374981e-03</internalNodes>
          <leafValues>
            4.8767638206481934e-01 -1.3644719123840332e-01</leafValues></_>
        <_>
          <internalNodes>
            0 -1 3 2.0404974929988384e-03</internalNodes>
          <leafValues>
            8.7906979024410248e-02 -7.7095478773117065e-01</leafValues></_>
        <_>
          <internalNodes>
            0 -1 284 7.4983169324696064e-03</internalNodes>
          <leafValues>
            -1.4993381500244141e-01 4.0700435638427734e-01</leafValues></_>
        <_>
          <internalNodes>
            0 -1 175 2.5974538177251816e-02</internalNodes>
          <leafValues>
            1.0500318557024002e-01 -6.4932692050933838e-01</leafValues></_>
        <_>
          <internalNodes>
            0 -1 27 4.6492106048390269e-04</internalNodes>
          <leafValues>
            -2.1151331067085266e-01 2.9737955331802368e-01</leafValues></_>
        <_>
          <internalNodes>
            0 -1 217 -2.5229935999959707e-04</internalNodes>
          <leafValues>
            3.2656815648078918e-01 -1.9304679334163666e-01</leafValues></_>
        <_>
          <internalNodes>
            0 -1 140 -4.0987081592902541e-04</internalNodes>
          <leafValues>
            3.7284865975379944e-01 -1.7039674520492554e-01</leafValues></_>
        <_>
          <internalNodes>
            0 -1 45 -1.0057943873107433e-02</internalNodes>
          <leafValues>
            -4.4638019800186157e-01 1.3690173625946045e-01</leafValues></_>
        <_>
          <internalNodes>
            0 -1 408 2.2680112160742283e-03</internalNodes>
          <leafValues>
            -1.8464808166027069e-01 3.7139645218849182e-01</leafValues></_>
        <_>
          <internalNodes>
            0 -1 12 -6.4455141546204686e-04</internalNodes>
          <leafValues>
            -4.9345988035202026e-01 1.1987958848476410e-01</leafValues></_></weakClassifiers></_></stages>
  <features>
    <_>
      <rects>
        <_>
          0 3 56 1 -1.</_>
        <_>
          14 3 28 1 2.</_></rects>
      <tilted>0</tilted></_>
    <_>
      <rects>
        <_>
          0 4 1 4 -1.</_>
        <_>
          0 6 1 2 2.</_></rects>
      <tilted>0</tilted></_>
    <_>
      <rects>
        <_>
          0 5 80 30 -1.</_>
        <_>
          20 5 40 30 2.</_></rects>
      <tilted>0</tilted></_>
    <_>
      <rects>
        <_>
          0 23 12 4 -1.</_>
        <_>
          0 24 12 2 2.</_></rects>
      <tilted>0</tilted></_>
    <_>
      <rects>
        <_>
          0 35 1 4 -1.</_>
        <_>
          0 37 1 2 2.</_></rects>
      <tilted>0</tilted></_>
    <_>
      <rects>
        <_>
          1 5 16 23 -1.</_>
        <_>
          5 5 8 23 2.</_></rects>
      <tilted>0</tilted></_>
    <_>
      <rects>
        <_>
          2 5 76 9 -1.</_>
        <_>
          21 5 38 9 2.</_></rects>
      <tilted>0</tilted></_>
    <_>
      <rects>
        <_>
          2 26 34 12 -1.</_>
        <_>
          19 26 17 12 2.</_></rects>
      <tilted>0</tilted></_>
    <_>
      <rects>
        <_>
          2 27 76 9 -1.</_>
        <_>
          21 27 38 9 2.</_></rects>
      <tilted>0</tilted></_>
    <_>
      <rects>
        <_>
          3 1 18 1 -1.</_>
        <_>
          3 1 9 1 2.</_></rects>
      <tilted>1</tilted></_>
    <_>
      <rects>
        <_>
          3 1 18 18 -1.</_>
        <_>
          3 1 9 9 2.</_>
        <_>
          12 10 9 9 2.</_></rects>
      <tilted>0</tilted></_>
    <_>
      <rects>
        <_>
          3 13 14 22 -1.</_>
        <_>
          10 13 7 22 2.</_></rects>
      <tilted>0</tilted></_>
    <_>
      <rects>
        <_>
          3 29 6 4 -1.</_>
        <_>
          3 30 6 2 2.</_></rects>
      <tilted>0</tilted></_>
    <_>
      <rects>
        <_>
          4 3 7 6 -1.</_>
        <_>
          4 5 7 2 3.</_></rects>
      <tilted>0</tilted></_>
    <_>
      <rects>
        <_>
          5 3 44 12 -1.</_>
        <_>
          5 6 44 6 2.</_></rects>
      <tilted>0</tilted></_>
    <_>
      <rects>
        <_>
          6 9 12 23 -1.</_>
        <_>
          10 9 4 23 3.</_></rects>
      <tilted>0</tilted></_>
    <_>
      <rects>
        <_>
          7 0 3 4 -1.</_>
        <_>
          7 0 3 2 2.</_></rects>
      <tilted>1</tilted></_>
    <_>
      <rects>
        <_>
          7 0 3 9 -1.</_>
        <_>
          7 3 3 3 3.</_></rects>
      <tilted>0</tilted></_>
    <_>
      <rects>
        <_>
          7 5 3 4 -1.</_>
        <_>
          6 6 3 2 2.</_></rects>
      <tilted>1</tilted></_>
    <_>
      <rects>
        <_>
          8 9 62 29 -1.</_>
        <_>
          39 9 31 29 2.</_></rects>
      <tilted>0</tilted></_>
    <_>
      <rects>
        <_>
          8 27 42 12 -1.</_>
        <_>
          8 27 21 6 2.</_>
        <_>
          29 33 21 6 2.</_></rects>
      <tilted>0</tilted></_>
    <_>
      <rects>
        <_>
          9 25 50 14 -1.</_>
        <_>
          9 25 25 7 2.</_>
        <_>
          34 32 25 7 2.</_></rects>
      <tilted>0</tilted></_>
    <_>
      <rects>
        <_>
          10 1 12 9 -1.</_>
        <_>
          13 4 6 9 2.</_></rects>
      <tilted>1</tilted></_>
    <_>
      <rects>
        <_>
          10 16 11 9 -1.</_>
        <_>
          7 19 11 3 3.</_></rects>
      <tilted>1</tilted></_>
    <_>
      <rects>
        <_>
          10 20 44 18 -1.</_>
        <_>
          10 20 22 9 2.</_>
        <_>
          32 29 22 9 2.</_></rects>
      <tilted>0</tilted></_>
    <_>
      <rects>
        <_>
          10 32 42 8 -1.</_>
        <_>
          10 32 21 4 2.</_>
        <_>
          31 36 21 4 2.</_></rects>
      <tilted>0</tilted></_>
    <_>
      <rects>
        <_>
          11 4 58 36 -1.</_>
        <_>
          40 4 29 36 2.</_></rects>
      <tilted>0</tilted></_>
    <_>
      <rects>
        <_>
          11 20 15 1 -1.</_>
        <_>
          16 20 5 1 3.</_></rects>
      <tilted>0</tilted></_>
    <_>
      <rects>
        <_>
          12 2 40 8 -1.</_>
        <_>
          12 2 20 4 2.</_>
        <_>
          32 6 20 4 2.</_></rects>
      <tilted>0</tilted></_>
    <_>
      <rects>
        <_>
          14 17 7 12 -1.</_>
        <_>
          10 21 7 4 3.</_></rects>
      <tilted>1</tilted></_>
    <_>
      <rects>
        <_>
          14 24 4 3 -1.</_>
        <_>
          15 25 2 3 2.</_></rects>
      <tilted>1</tilted></_>
    <_>
      <rects>
        <_>
          15 13 54 18 -1.</_>
        <_>
          33 19 18 6 9.</_></rects>
      <tilted>0</tilted></_>
    <_>
      <rects>
        <_>
          15 23 54 12 -1.</_>
        <_>
          15 23 27 6 2.</_>
        <_>
          42 29 27 6 2.</_></rects>
      <tilted>0</tilted></_>
    <_>
      <rects>
        <_>
          16 5 22 4 -1.</_>
        <_>
          16 5 11 2 2.</_>
        <_>
          27 7 11 2 2.</_></rects>
      <tilted>0</tilted></_>
    <_>
      <rects>
        <_>
          16 14 36 15 -1.</_>
        <_>
          25 14 18 15 2.</_></rects>
      <tilted>0</tilted></_>
    <_>
      <rects>
        <_>
          16 25 48 14 -1.</_>
        <_>
          16 25 24 7 2.</_>
        <_>
          40 32 24 7 2.</_></rects>
      <tilted>0</tilted></_>
    <_>
      <rects>
        <_>
          17 9 40 15 -1.</_>
        <_>
          27 9 20 15 2.</_></rects>
      <tilted>0</tilted></_>
    <_>
      <rects>
        <_>
          17 15 40 20 -1.</_>
        <_>
          27 15 20 20 2.</_></rects>
      <tilted>0</tilted></_>
    <_>
      <rects>
        <_>
          17 18 6 6 -1.</_>
        <_>
          19 20 2 2 9.</_></rects>
      <tilted>0</tilted></_>
    <_>
      <rects>
        <_>
          17 27 26 12 -1.</_>
        <_>
          17 27 13 6 2.</_>
        <_>
          30 33 13 6 2.</_></rects>
      <tilted>0</tilted></_>
    <_>
      <rects>
        <_>
          18 5 6 2 -1.</_>
        <_>
          20 7 2 2 3.</_></rects>
      <tilted>1</tilted></_>
    <_>
      <rects>
        <_>
          18 7 40 9 -1.</_>
        <_>
          28 7 20 9 2.</_></rects>
      <tilted>0</tilted></_>
    <_>
      <rects>
        <_>
          18 15 6 8 -1.</_>
        <_>
          18 15 3 4 2.</_>
        <_>
          21 19 3 4 2.</_></rects>
      <tilted>0</tilted></_>
    <_>
      <rects>
        <_>
          18 16 50 7 -1.</_>
        <_>
          43 16 25 7 2.</_></rects>
      <tilted>0</tilted></_>
    <_>
      <rects>
        <_>
          18 17 24 10 -1.</_>
        <_>
          26 17 8 10 3.</_></rects>
      <tilted>0</tilted></_>
    <_>
      <rects>
        <_>
          18 19 15 21 -1.</_>
        <_>
          23 19 5 21 3.</_></rects>
      <tilted>0</tilted></_>
    <_>
      <rects>
        <_>
          18 21 14 14 -1.</_>
        <_>
          18 28 14 7 2.</_></rects>
      <tilted>0</tilted></_>
    <_>
      <rects>
        <_>
          18 23 4 4 -1.</_>
        <_>
          17 24 4 2 2.</_></rects>
      <tilted>1</tilted></_>
    <_>
      <rects>
        <_>
          18 23 44 14 -1.</_>
        <_>
          18 23 22 7 2.</_>
        <_>
          40 30 22 7 2.</_></rects>
      <tilted>0</tilted></_>
    <_>
      <rects>
        <_>
          18 24 46 8 -1.</_>
        <_>
          18 24 23 4 2.</_>
        <_>
          41 28 23 4 2.</_></rects>
      <tilted>0</tilted></_>
    <_>
      <rects>
        <_>
          18 26 22 14 -1.</_>
        <_>
          18 26 11 7 2.</_>
        <_>
          29 33 11 7 2.</_></rects>
      <tilted>0</tilted></_>
    <_>
      <rects>
        <_>
          18 30 46 8 -1.</_>
        <_>
          18 30 23 4 2.</_>
        <_>
          41 34 23 4 2.</_></rects>
      <tilted>0</tilted></_>
    <_>
      <rects>
        <_>
          19 4 6 5 -1.</_>
        <_>
          21 6 2 5 3.</_></rects>
      <tilted>1</tilted></_>
    <_>
      <rects>
        <_>
          19 13 32 16 -1.</_>
        <_>
          27 13 16 16 2.</_></rects>
      <tilted>0</tilted></_>
    <_>
      <rects>
        <_>
          19 15 45 18 -1.</_>
        <_>
          34 21 15 6 9.</_></rects>
      <tilted>0</tilted></_>
    <_>
      <rects>
        <_>
          19 16 3 15 -1.</_>
        <_>
          20 21 1 5 9.</_></rects>
      <tilted>0</tilted></_>
    <_>
      <rects>
        <_>
          19 18 50 12 -1.</_>
        <_>
          44 18 25 12 2.</_></rects>
      <tilted>0</tilted></_>
    <_>
      <rects>
        <_>
          19 19 7 9 -1.</_>
        <_>
          16 22 7 3 3.</_></rects>
      <tilted>1</tilted></_>
    <_>
      <rects>
        <_>
          19 19 10 9 -1.</_>
        <_>
          16 22 10 3 3.</_></rects>
      <tilted>1</tilted></_>
    <_>
      <rects>
        <_>
          19 24 44 14 -1.</_>
        <_>
          19 24 22 7 2.</_>
        <_>
          41 31 22 7 2.</_></rects>
      <tilted>0</tilted></_>
    <_>
      <rects>
        <_>
          20 13 32 15 -1.</_>
        <_>
          28 13 16 15 2.</_></rects>
      <tilted>0</tilted></_>
    <_>
      <rects>
        <_>
          20 19 7 16 -1.</_>
        <_>
          20 23 7 8 2.</_></rects>
      <tilted>0</tilted></_>
    <_>
      <rects>
        <_>
          20 23 42 14 -1.</_>
        <_>
          20 23 21 7 2.</_>
        <_>
          41 30 21 7 2.</_></rects>
      <tilted>0</tilted></_>
    <_>
      <rects>
        <_>
          21 2 24 11 -1.</_>
        <_>
          29 2 8 11 3.</_></rects>
      <tilted>0</tilted></_>
    <_>
      <rects>
        <_>
          21 8 26 21 -1.</_>
        <_>
          34 8 13 21 2.</_></rects>
      <tilted>0</tilted></_>
    <_>
      <rects>
        <_>
          21 8 48 32 -1.</_>
        <_>
          45 8 24 32 2.</_></rects>
      <tilted>0</tilted></_>
    <_>
      <rects>
        <_>
          21 11 3 9 -1.</_>
        <_>
          21 14 3 3 3.</_></rects>
      <tilted>0</tilted></_>
    <_>
      <rects>
        <_>
          21 12 32 18 -1.</_>
        <_>
          37 12 16 18 2.</_></rects>
      <tilted>0</tilted></_>
    <_>
      <rects>
        <_>
          21 20 5 12 -1.</_>
        <_>
          17 24 5 4 3.</_></rects>
      <tilted>1</tilted></_>
    <_>
      <rects>
        <_>
          21 23 12 2 -1.</_>
        <_>
          24 23 6 2 2.</_></rects>
      <tilted>0</tilted></_>
    <_>
      <rects>
        <_>
          21 32 30 6 -1.</_>
        <_>
          21 32 15 3 2.</_>
        <_>
          36 35 15 3 2.</_></rects>
      <tilted>0</tilted></_>
    <_>
      <rects>
        <_>
          22 10 4 4 -1.</_>
        <_>
          23 11 2 4 2.</_></rects>
      <tilted>1</tilted></_>
    <_>
      <rects>
        <_>
          22 10 32 6 -1.</_>
        <_>
          30 10 16 6 2.</_></rects>
      <tilted>0</tilted></_>
    <_>
